{"learner":{"attributes":{"best_iteration":"7","best_score":"0.9841531440162272","scikit_learn":"{\"_estimator_type\": \"classifier\"}"},"feature_names":["highway_encoded","maxspeed","lanes","oneway_encoded","surface_encoded","is_dead_end","junction_complexity","length","bridge_encoded","tunnel_encoded","pothole_count","crash_count","cluster_present","blackspot_present","hour_of_day","day_of_week","is_rush_hour","is_night","precipitation_mm","visibility_km","windspeed_kmh"],"feature_types":["int","int","int","int","int","int","int","float","int","int","int","int","int","int","int","int","int","int","float","float","float"],"gradient_booster":{"model":{"cats":{"enc":[],"feature_segments":[],"sorted_idx":[]},"gbtree_model_param":{"num_parallel_tree":"1","num_trees":"38"},"iteration_indptr":[0,1,2,3,4,5,6,7,8,9,10,11,12,13,14,15,16,17,18,19,20,21,22,23,24,25,26,27,28,29,30,31,32,33,34,35,36,37,38],"tree_info":[0,0,0,0,0,0,0,0,0,0,0,0,0,0,0,0,0,0,0,0,0,0,0,0,0,0,0,0,0,0,0,0,0,0,0,0,0,0],"trees":[{"base_weights":[-3.3810563E-2,-8.316329E-2,1.7121519E0,1.9573201E0,-7.410588E-1,1.313037E0,1.9903005E0,-7.89726E-2,1.0319829E-1,2.9601598E-2,8.270694E-2,1.0526331E-1,9.0817936E-2],"categories":[],"categories_nodes":[],"categories_segments":[],"categories_sizes":[],"default_left":[0,0,0,0,0,0,0,0,0,0,0,0,0],"id":0,"left_children":[1,-1,3,5,7,9,11,-1,-1,-1,-1,-1,-1],"loss_changes":[1.4667465E3,0E0,1.5114594E2,2.2006226E0,5.814662E1,2.4566803E0,4.4714355E-1,0E0,0E0,0E0,0E0,0E0,0E0],"parents":[2147483647,0,0,2,2,3,3,4,4,5,5,6,6],"right_children":[2,-1,4,6,8,10,12,-1,-1,-1,-1,-1,-1],"split_conditions":[1E0,-8.316329E-2,9.997275E0,2E0,2E0,5.722241E0,1.4E1,-7.89726E-2,1.0319829E-1,2.9601598E-2,8.270694E-2,1.0526331E-1,9.0817936E-2],"split_indices":[10,0,18,14,10,18,14,0,0,0,0,0,0],"split_type":[0,0,0,0,0,0,0,0,0,0,0,0,0],"sum_hessian":[5.1355725E2,2.656662E2,2.4789107E2,2.2555205E2,2.2339022E1,1.2971045E1,2.1258101E2,1.7534931E1,4.8040905E0,5.0442953E0,7.926749E0,1.2130328E2,9.127772E1],"tree_param":{"num_deleted":"0","num_feature":"21","num_nodes":"13","size_leaf_vector":"1"}},{"base_weights":[4.34941E-3,-8.049642E-2,1.643972E0,-2.0630091E-2,1.9518868E0,4.5700613E-1,-7.34778E-2,2.0757325E0,9.140735E-2,-3.2948303E-1,7.718176E-1,1.5398299E0,1.1217102E-1,-1.041623E0,9.743446E-2,-4.1547988E-2,2.3381965E-2,7.705217E-2,1.7519709E-2,8.042122E-2,3.4695327E-2,-1.5688365E-2,-6.834912E-2],"categories":[],"categories_nodes":[],"categories_segments":[],"categories_sizes":[],"default_left":[0,0,0,0,0,0,0,0,0,0,0,0,0,0,0,0,0,0,0,0,0,0,0],"id":1,"left_children":[1,-1,3,5,7,9,-1,11,13,15,17,19,-1,21,-1,-1,-1,-1,-1,-1,-1,-1,-1],"loss_changes":[1.3756611E3,0E0,1.3220087E2,2.9212126E1,4.9949463E1,8.122524E0,0E0,1.4875916E1,3.281089E1,4.2999663E0,6.9138775E0,1.8898239E0,0E0,1.8768759E0,0E0,0E0,0E0,0E0,0E0,0E0,0E0,0E0,0E0],"parents":[2147483647,0,0,2,2,3,3,4,4,5,5,7,7,8,8,9,9,10,10,11,11,13,13],"right_children":[2,-1,4,6,8,10,-1,12,14,16,18,20,-1,22,-1,-1,-1,-1,-1,-1,-1,-1,-1],"split_conditions":[1E0,-8.049642E-2,5.5100704E1,9.406603E0,9.997275E0,2.4433609E1,-7.34778E-2,1.1794145E2,2E0,5E0,3.0678577E1,8.975061E0,1.1217102E-1,2E0,9.743446E-2,-4.1547988E-2,2.3381965E-2,7.705217E-2,1.7519709E-2,8.042122E-2,3.4695327E-2,-1.5688365E-2,-6.834912E-2],"split_indices":[10,0,7,18,18,7,0,7,10,15,7,18,0,15,0,0,0,0,0,0,0,0,0],"split_type":[0,0,0,0,0,0,0,0,0,0,0,0,0,0,0,0,0,0,0,0,0,0,0],"sum_hessian":[5.177438E2,2.608974E2,2.5684637E2,4.0239994E1,2.1660638E2,3.07785E1,9.461495E0,2.0297906E2,1.36273155E1,8.784844E0,2.1993656E1,5.0803158E1,1.5217592E2,8.736688E0,4.8906274E0,5.366366E0,3.4184778E0,6.844185E0,1.514947E1,4.6158833E1,4.6443253E0,3.305774E0,5.4309144E0],"tree_param":{"num_deleted":"0","num_feature":"21","num_nodes":"23","size_leaf_vector":"1"}},{"base_weights":[4.5867927E-2,-7.810535E-2,1.5438154E0,1.7588892E0,-7.144746E-1,1.088892E0,1.0467752E-1,-1.300771E0,8.870407E-2,4.3138516E-1,1.3726821E0,-7.344234E-2,-3.5762746E-2,3.749566E-2,-6.664843E-2,7.202422E-2,3.4768008E-2],"categories":[],"categories_nodes":[],"categories_segments":[],"categories_sizes":[],"default_left":[0,0,0,0,0,0,0,0,0,0,0,0,0,0,0,0,0],"id":2,"left_children":[1,-1,3,5,7,9,-1,11,-1,13,15,-1,-1,-1,-1,-1,-1],"loss_changes":[1.2351293E3,0E0,1.3019061E2,5.213147E1,3.702463E1,1.487989E1,0E0,9.0133286E-1,0E0,1.5868435E1,1.6371841E0,0E0,0E0,0E0,0E0,0E0,0E0],"parents":[2147483647,0,0,2,2,3,3,4,4,5,5,7,7,9,9,10,10],"right_children":[2,-1,4,6,8,10,-1,12,-1,14,16,-1,-1,-1,-1,-1,-1],"split_conditions":[1E0,-7.810535E-2,9.997275E0,1.2238144E2,2E0,4.5257626E1,1.0467752E-1,9.605437E1,8.870407E-2,1E0,2.1E1,-7.344234E-2,-3.5762746E-2,3.749566E-2,-6.664843E-2,7.202422E-2,3.4768008E-2],"split_indices":[10,0,18,7,10,7,0,7,0,17,14,0,0,0,0,0,0],"split_type":[0,0,0,0,0,0,0,0,0,0,0,0,0,0,0,0,0],"sum_hessian":[5.1078522E2,2.4632465E2,2.6446057E2,2.4166606E2,2.2794523E1,8.1918205E1,1.5974785E2,1.8834476E1,3.9600472E0,2.545716E1,5.646104E1,1.3461608E1,5.3728685E0,2.205112E1,3.4060407E0,5.0299187E1,6.1618543E0],"tree_param":{"num_deleted":"0","num_feature":"21","num_nodes":"17","size_leaf_vector":"1"}},{"base_weights":[-3.7975278E-2,-7.5987644E-2,1.444572E0,7.171879E-1,9.687325E-2,8.4222496E-1,-7.00089E-2,1.3115652E-1,1.1485705E0,-6.526049E-2,1.7660256E-2,6.282241E-2,3.799196E-2],"categories":[],"categories_nodes":[],"categories_segments":[],"categories_sizes":[],"default_left":[0,0,0,0,0,0,0,0,0,0,0,0,0],"id":3,"left_children":[1,-1,3,5,-1,7,-1,9,11,-1,-1,-1,-1],"loss_changes":[1.1194731E3,0E0,8.994153E1,2.8841099E1,0E0,2.1476128E1,0E0,1.0355516E1,1.9496918E0,0E0,0E0,0E0,0E0],"parents":[2147483647,0,0,2,2,3,3,5,5,7,7,8,8],"right_children":[2,-1,4,6,-1,8,-1,10,12,-1,-1,-1,-1],"split_conditions":[1E0,-7.5987644E-2,1.2872531E2,1E0,9.687325E-2,4.5257626E1,-7.00089E-2,1.57567005E1,9.823308E1,-6.526049E-2,1.7660256E-2,6.282241E-2,3.799196E-2],"split_indices":[10,0,7,11,0,7,0,7,7,0,0,0,0],"split_type":[0,0,0,0,0,0,0,0,0,0,0,0,0],"sum_hessian":[5.075921E2,2.538494E2,2.537427E2,1.0348315E2,1.5025955E2,9.828155E1,5.201602E0,3.0022802E1,6.825874E1,3.3666844E0,2.6656118E1,5.1683712E1,1.6575031E1],"tree_param":{"num_deleted":"0","num_feature":"21","num_nodes":"13","size_leaf_vector":"1"}},{"base_weights":[-1.912459E-2,-7.406062E-2,1.3905807E0,2.666276E-1,1.6844873E0,6.6436714E-1,-3.631784E-1,1.100253E0,9.141606E-2,-2.64561E-2,8.455941E-1,-7.334736E-2,8.9550965E-2,1.3613918E0,5.653737E-1,1.1430589E-2,5.707867E-2,5.3187896E-2,-2.3101479E-2,3.273004E-2,8.888071E-2,4.651163E-2,1.7252703E-3],"categories":[],"categories_nodes":[],"categories_segments":[],"categories_sizes":[],"default_left":[0,0,0,0,0,0,0,0,0,0,0,0,0,0,0,0,0,0,0,0,0,0,0],"id":4,"left_children":[1,-1,3,5,7,9,11,13,-1,-1,15,-1,17,19,21,-1,-1,-1,-1,-1,-1,-1,-1],"loss_changes":[1.0309159E3,0E0,8.367322E1,1.3762055E1,1.4936157E1,7.6794186E0,1.0894694E1,5.146248E0,0E0,0E0,5.1102943E0,0E0,9.205586E0,6.9997673E0,2.9904366E0,0E0,0E0,0E0,0E0,0E0,0E0,0E0,0E0],"parents":[2147483647,0,0,2,2,3,3,4,4,5,5,6,6,7,7,10,10,12,12,13,13,14,14],"right_children":[2,-1,4,6,8,10,12,14,-1,-1,16,-1,18,20,22,-1,-1,-1,-1,-1,-1,-1,-1],"split_conditions":[1E0,-7.406062E-2,7.963263E1,1.3E1,1.2501265E2,3E0,1.7E1,1.5E1,9.141606E-2,-2.64561E-2,3E0,-7.334736E-2,2E0,8E0,9.823308E1,1.1430589E-2,5.707867E-2,5.3187896E-2,-2.3101479E-2,3.273004E-2,8.888071E-2,4.651163E-2,1.7252703E-3],"split_indices":[10,0,7,14,7,14,14,14,0,0,15,0,15,14,7,0,0,0,0,0,0,0,0],"split_type":[0,0,0,0,0,0,0,0,0,0,0,0,0,0,0,0,0,0,0,0,0,0,0],"sum_hessian":[4.9817514E2,2.4451923E2,2.5365591E2,5.2975407E1,2.0068051E2,3.2436195E1,2.0539211E1,4.1354286E1,1.5932622E2,4.0229535E0,2.8413242E1,5.322516E0,1.5216695E1,2.6749443E1,1.4604844E1,9.786088E0,1.8627153E1,5.165238E0,1.0051456E1,1.0867671E1,1.5881772E1,8.20996E0,6.394884E0],"tree_param":{"num_deleted":"0","num_feature":"21","num_nodes":"23","size_leaf_vector":"1"}},{"base_weights":[-4.5344573E-2,-7.2325364E-2,1.2868814E0,1.4702926E0,-6.970927E-1,1.9439256E-1,1.6304147E0,-1.2715057E0,7.738327E-2,4.4220573E-1,-3.8905393E-2,1.1785462E0,8.952879E-2,-3.445697E-2,-7.2299324E-2,-1.2320012E-2,4.3165322E-2,7.07198E-2,3.81808E-2],"categories":[],"categories_nodes":[],"categories_segments":[],"categories_sizes":[],"default_left":[0,0,0,0,0,0,0,0,0,0,0,0,0,0,0,0,0,0,0],"id":5,"left_children":[1,-1,3,5,7,9,11,13,-1,15,-1,17,-1,-1,-1,-1,-1,-1,-1],"loss_changes":[9.30463E2,0E0,9.4009735E1,4.7536743E1,3.0725206E1,6.9120674E0,1.2941589E1,8.6375046E-1,0E0,6.695473E0,0E0,4.532425E0,0E0,0E0,0E0,0E0,0E0,0E0,0E0],"parents":[2147483647,0,0,2,2,3,3,4,4,5,5,6,6,7,7,9,9,11,11],"right_children":[2,-1,4,6,8,10,12,14,-1,16,-1,18,-1,-1,-1,-1,-1,-1,-1],"split_conditions":[1E0,-7.2325364E-2,9.997275E0,4.5257626E1,2E0,3.5545105E1,1.2238144E2,2E0,7.738327E-2,2.4433609E1,-3.8905393E-2,8.652136E1,8.952879E-2,-3.445697E-2,-7.2299324E-2,-1.2320012E-2,4.3165322E-2,7.07198E-2,3.81808E-2],"split_indices":[10,0,18,7,10,7,7,15,0,7,0,7,0,0,0,0,0,0,0],"split_type":[0,0,0,0,0,0,0,0,0,0,0,0,0,0,0,0,0,0,0],"sum_hessian":[4.9646545E2,2.4193044E2,2.5453502E2,2.3323245E2,2.1302568E1,2.6253223E1,2.0697923E2,1.7307344E1,3.9952247E0,2.135645E1,4.8967743E0,5.6351418E1,1.506278E2,5.1310444E0,1.21763E1,8.261567E0,1.3094883E1,3.4393246E1,2.1958172E1],"tree_param":{"num_deleted":"0","num_feature":"21","num_nodes":"19","size_leaf_vector":"1"}},{"base_weights":[1.9304434E-2,-6.421705E-1,1.0918095E0,-9.88213E-1,-2.0895307E-1,6.327527E-1,1.4834343E0,-1.3062202E0,-8.109142E-1,-1.238218E-1,-6.668208E-2,4.354802E-1,9.090477E-1,1.321772E0,8.177919E-2,-1.3596437E0,-3.0369684E-2,-5.2107686E-1,-9.80867E-1,-5.7177913E-1,9.7908266E-2,4.9530017E-1,-1.8152818E-2,1.0647625E0,6.483427E-1,8.345057E-1,1.4069531E0,-3.8560595E-2,-7.129441E-2,-5.4904395E-3,-5.0895687E-2,-6.92172E-2,-4.079907E-2,-3.5174895E-2,7.550262E-3,3.5102185E-2,-9.808227E-3,1.5367416E-2,3.5295945E-2,3.196895E-2,6.594212E-2,1.761295E-2,5.6901164E-2,1.9975213E-2,5.73481E-2,7.620361E-2,4.341909E-2],"categories":[],"categories_nodes":[],"categories_segments":[],"categories_sizes":[],"default_left":[0,0,0,0,0,0,0,0,0,0,0,0,0,0,0,0,0,0,0,0,0,0,0,0,0,0,0,0,0,0,0,0,0,0,0,0,0,0,0,0,0,0,0,0,0,0,0],"id":6,"left_children":[1,3,5,7,9,11,13,15,17,19,-1,21,23,25,-1,27,-1,29,31,33,35,37,-1,39,41,43,45,-1,-1,-1,-1,-1,-1,-1,-1,-1,-1,-1,-1,-1,-1,-1,-1,-1,-1,-1,-1],"loss_changes":[3.511707E2,4.5694534E1,3.300792E1,8.5230255E0,1.2974618E1,4.437252E0,3.2615662E-1,1.3842621E0,4.9937134E0,1.2837285E1,0E0,2.7427893E0,7.718601E-1,1.0777893E0,0E0,1.012558E0,0E0,8.7646265E0,3.481598E0,4.17638E0,1.5581517E1,1.7757158E0,0E0,1.4256973E0,1.9226108E0,9.731512E-1,1.4975815E0,0E0,0E0,0E0,0E0,0E0,0E0,0E0,0E0,0E0,0E0,0E0,0E0,0E0,0E0,0E0,0E0,0E0,0E0,0E0,0E0],"parents":[2147483647,0,0,1,1,2,2,3,3,4,4,5,5,6,6,7,7,8,8,9,9,11,11,12,12,13,13,15,15,17,17,18,18,19,19,20,20,21,21,23,23,24,24,25,25,26,26],"right_children":[2,4,6,8,10,12,14,16,18,20,-1,22,24,26,-1,28,-1,30,32,34,36,38,-1,40,42,44,46,-1,-1,-1,-1,-1,-1,-1,-1,-1,-1,-1,-1,-1,-1,-1,-1,-1,-1,-1,-1],"split_conditions":[1.4086462E2,6.0609734E1,2.7876547E2,2.5037073E1,1E0,2.0951688E2,5.0976614E2,1E0,3.5545105E1,9E0,-6.668208E-2,2.0402179E2,2.4340404E2,4E0,8.177919E-2,1E0,-3.0369684E-2,1.3E1,4.1095463E1,6E0,1.3E1,1.2E1,-1.8152818E-2,1.3E1,5E0,4E0,1.9E1,-3.8560595E-2,-7.129441E-2,-5.4904395E-3,-5.0895687E-2,-6.92172E-2,-4.079907E-2,-3.5174895E-2,7.550262E-3,3.5102185E-2,-9.808227E-3,1.5367416E-2,3.5295945E-2,3.196895E-2,6.594212E-2,1.761295E-2,5.6901164E-2,1.9975213E-2,5.73481E-2,7.620361E-2,4.341909E-2],"split_indices":[7,7,7,7,11,7,7,3,7,14,0,7,7,14,0,15,0,14,7,15,14,14,0,14,15,0,14,0,0,0,0,0,0,0,0,0,0,0,0,0,0,0,0,0,0,0,0],"split_type":[0,0,0,0,0,0,0,0,0,0,0,0,0,0,0,0,0,0,0,0,0,0,0,0,0,0,0,0,0,0,0,0,0,0,0,0,0,0,0,0,0,0,0,0,0,0,0],"sum_hessian":[4.9301212E2,3.051871E2,1.8782501E2,1.689518E2,1.362353E2,8.767242E1,1.00152596E2,5.8198418E1,1.1075339E2,1.2768083E2,8.554475E0,5.2653996E1,3.501842E1,5.3255127E1,4.689747E1,5.3186813E1,5.011604E0,4.2440834E1,6.831255E1,4.1751762E1,8.592907E1,4.933775E1,3.3162496E0,1.9992855E1,1.5025564E1,9.531036E0,4.372409E1,6.660988E0,4.6525826E1,2.3888006E1,1.8552828E1,1.7672354E1,5.0640198E1,3.5338444E1,6.41332E0,2.7678919E1,5.825015E1,2.7371363E1,2.1966385E1,8.791119E0,1.1201737E1,1.0435274E1,4.5902896E0,4.9367237E0,4.594312E0,3.4411125E1,9.312965E0],"tree_param":{"num_deleted":"0","num_feature":"21","num_nodes":"47","size_leaf_vector":"1"}},{"base_weights":[2.2859814E-2,-7.018092E-2,1.25091E0,1.4306886E0,-6.1464196E-1,4.2534953E-1,1.5651497E0,-1.2436782E0,7.504701E-2,-8.156397E-2,1.0830219E0,1.1903269E0,8.4481284E-2,-3.4978937E-2,-7.018422E-2,1.6745767E-2,-6.692254E-2,1.846382E-2,6.5985106E-2,6.2270682E-2,2.4377838E-2],"categories":[],"categories_nodes":[],"categories_segments":[],"categories_sizes":[],"default_left":[0,0,0,0,0,0,0,0,0,0,0,0,0,0,0,0,0,0,0,0,0],"id":7,"left_children":[1,-1,3,5,7,9,11,13,-1,15,17,19,-1,-1,-1,-1,-1,-1,-1,-1,-1],"loss_changes":[8.6195764E2,0E0,8.955652E1,3.1975006E1,3.3725166E1,1.0042592E1,7.908142E0,6.721306E-1,0E0,9.761665E0,1.7199965E0,1.5757141E0,0E0,0E0,0E0,0E0,0E0,0E0,0E0,0E0,0E0],"parents":[2147483647,0,0,2,2,3,3,4,4,5,5,6,6,7,7,9,9,10,10,11,11],"right_children":[2,-1,4,6,8,10,12,14,-1,16,18,20,-1,-1,-1,-1,-1,-1,-1,-1,-1],"split_conditions":[1E0,-7.018092E-2,9.997275E0,4.9371277E1,2E0,1E0,1.2238144E2,2E0,7.504701E-2,3.5545105E1,2.2326353E1,9.075947E0,8.4481284E-2,-3.4978937E-2,-7.018422E-2,1.6745767E-2,-6.692254E-2,1.846382E-2,6.5985106E-2,6.2270682E-2,2.4377838E-2],"split_indices":[10,0,18,7,10,16,7,15,0,7,7,18,0,0,0,0,0,0,0,0,0],"split_type":[0,0,0,0,0,0,0,0,0,0,0,0,0,0,0,0,0,0,0,0,0],"sum_hessian":[4.900425E2,2.2663959E2,2.6340292E2,2.4046318E2,2.2939741E1,2.8858326E1,2.1160484E2,1.7999884E1,4.939858E0,1.6791746E1,1.206658E1,5.5386745E1,1.5621811E2,5.311247E0,1.2688637E1,1.31634655E1,3.6282814E0,3.6424496E0,8.4241295E0,5.0644802E1,4.741942E0],"tree_param":{"num_deleted":"0","num_feature":"21","num_nodes":"21","size_leaf_vector":"1"}},{"base_weights":[2.4627004E-2,-6.4746684E-1,9.8777425E-1,-1.0078474E0,-1.8067825E-1,5.930319E-1,1.3910847E0,-8.5058784E-1,-1.1904242E0,-8.973222E-2,-6.3993774E-2,3.427311E-1,7.568912E-1,9.8046565E-1,7.262912E-2,-6.479214E-2,-7.6946914E-1,-6.833246E-1,-1.2671603E0,-5.993172E-1,8.305784E-2,-3.1981222E-2,4.7203785E-1,6.0712016E-1,1.2530446E0,5.9811987E-2,1.9997133E-2,-2.862057E-2,-4.7431737E-2,-5.981732E-2,-4.675251E-3,-6.601553E-2,-2.511001E-2,-5.548699E-2,-8.330167E-3,2.6492083E-2,-6.904778E-3,3.0266887E-2,-6.116688E-3,4.873317E-2,2.2659881E-2,7.306326E-2,3.2302856E-2],"categories":[],"categories_nodes":[],"categories_segments":[],"categories_sizes":[],"default_left":[0,0,0,0,0,0,0,0,0,0,0,0,0,0,0,0,0,0,0,0,0,0,0,0,0,0,0,0,0,0,0,0,0,0,0,0,0,0,0,0,0,0,0],"id":8,"left_children":[1,3,5,7,9,11,13,15,17,19,-1,21,23,25,-1,-1,27,29,31,33,35,-1,37,39,41,-1,-1,-1,-1,-1,-1,-1,-1,-1,-1,-1,-1,-1,-1,-1,-1,-1,-1],"loss_changes":[3.1238913E2,4.7636795E1,3.0750702E1,3.5869904E0,1.2387632E1,3.9230156E0,1.034317E0,2.2379608E0,1.9213638E0,1.0315114E1,0E0,5.6589956E0,3.757412E0,1.4955454E0,0E0,0E0,2.2188644E0,3.3935766E0,1.8188248E0,6.3622456E0,8.7624035E0,0E0,3.0723505E0,2.310217E0,7.18977E-1,0E0,0E0,0E0,0E0,0E0,0E0,0E0,0E0,0E0,0E0,0E0,0E0,0E0,0E0,0E0,0E0,0E0,0E0],"parents":[2147483647,0,0,1,1,2,2,3,3,4,4,5,5,6,6,7,7,8,8,9,9,11,11,12,12,13,13,16,16,17,17,18,18,19,19,20,20,22,22,23,23,24,24],"right_children":[2,4,6,8,10,12,14,16,18,20,-1,22,24,26,-1,-1,28,30,32,34,36,-1,38,40,42,-1,-1,-1,-1,-1,-1,-1,-1,-1,-1,-1,-1,-1,-1,-1,-1,-1,-1],"split_conditions":[1.3020074E2,6.0609734E1,2.7876547E2,1.3E1,1E0,1.7983595E2,3.1666263E2,2E0,1E0,7E0,-6.3993774E-2,1E0,2.1E1,2.9909943E2,7.262912E-2,-6.479214E-2,3.094203E1,1.9E1,5.2840714E1,8.543596E1,1.2E1,-3.1981222E-2,1.7E1,5E0,4E0,5.9811987E-2,1.9997133E-2,-2.862057E-2,-4.7431737E-2,-5.981732E-2,-4.675251E-3,-6.601553E-2,-2.511001E-2,-5.548699E-2,-8.330167E-3,2.6492083E-2,-6.904778E-3,3.0266887E-2,-6.116688E-3,4.873317E-2,2.2659881E-2,7.306326E-2,3.2302856E-2],"split_indices":[7,7,7,14,11,7,7,14,15,14,0,15,14,7,0,0,7,14,7,7,14,0,14,14,15,0,0,0,0,0,0,0,0,0,0,0,0,0,0,0,0,0,0],"split_type":[0,0,0,0,0,0,0,0,0,0,0,0,0,0,0,0,0,0,0,0,0,0,0,0,0,0,0,0,0,0,0,0,0,0,0,0,0,0,0,0,0,0,0],"sum_hessian":[4.805964E2,2.8326144E2,1.9733495E2,1.5919617E2,1.24065285E2,1.0097526E2,9.635969E1,8.856821E1,7.062797E1,1.1558369E2,8.481598E0,4.1173267E1,5.980199E1,1.47587805E1,8.1600914E1,1.1341404E1,7.72268E1,1.0584778E1,6.004319E1,2.864288E1,8.69408E1,4.3301497E0,3.6843117E1,4.7643707E1,1.215828E1,9.986343E0,4.7724376E0,3.877475E1,3.845205E1,5.1109633E0,5.473815E0,5.5463543E1,4.57965E0,1.24235935E1,1.6219286E1,2.8323868E1,5.861694E1,3.0078873E1,6.764246E0,1.248922E1,3.5154488E1,8.004884E0,4.1533966E0],"tree_param":{"num_deleted":"0","num_feature":"21","num_nodes":"43","size_leaf_vector":"1"}},{"base_weights":[-1.1616343E-2,-6.840933E-2,1.1739873E0,1.3240433E0,-6.07901E-1,4.291438E-1,1.4677849E0,-1.158941E0,6.778915E-2,8.3478284E-1,-4.6330947E-1,1.0917382E0,7.787107E-2,-2.8405283E-2,-6.703397E-2,7.1201816E-2,-2.6067393E-3,-6.414592E-2,2.7737252E-3,1.9086491E-2,6.059599E-2],"categories":[],"categories_nodes":[],"categories_segments":[],"categories_sizes":[],"default_left":[0,0,0,0,0,0,0,0,0,0,0,0,0,0,0,0,0,0,0,0,0],"id":9,"left_children":[1,-1,3,5,7,9,11,13,-1,15,17,19,-1,-1,-1,-1,-1,-1,-1,-1,-1],"loss_changes":[7.553573E2,0E0,6.781656E1,2.9144989E1,2.3376347E1,1.2495096E1,5.008301E0,9.8589325E-1,0E0,1.2278555E1,4.788737E0,3.0916138E0,0E0,0E0,0E0,0E0,0E0,0E0,0E0,0E0,0E0],"parents":[2147483647,0,0,2,2,3,3,4,4,5,5,6,6,7,7,9,9,10,10,11,11],"right_children":[2,-1,4,6,8,10,12,14,-1,16,18,20,-1,-1,-1,-1,-1,-1,-1,-1,-1],"split_conditions":[1E0,-6.840933E-2,9.997275E0,5.5100704E1,2E0,1.3E1,1.16793236E2,2E0,6.778915E-2,5.159283E0,1.7E1,2.177462E0,7.787107E-2,-2.8405283E-2,-6.703397E-2,7.1201816E-2,-2.6067393E-3,-6.414592E-2,2.7737252E-3,1.9086491E-2,6.059599E-2],"split_indices":[10,0,18,7,10,14,7,15,0,18,14,18,0,0,0,0,0,0,0,0,0],"split_type":[0,0,0,0,0,0,0,0,0,0,0,0,0,0,0,0,0,0,0,0,0],"sum_hessian":[4.6764734E2,2.180267E2,2.4962064E2,2.3046935E2,1.9151289E1,3.2447144E1,1.980222E2,1.5274767E1,3.8765225E0,2.235221E1,1.0094936E1,4.06529E1,1.573693E2,4.5637765E0,1.0710991E1,1.3065864E1,9.286345E0,3.3420353E0,6.752901E0,6.489649E0,3.416325E1],"tree_param":{"num_deleted":"0","num_feature":"21","num_nodes":"21","size_leaf_vector":"1"}},{"base_weights":[-3.272739E-2,-6.71383E-2,1.1178292E0,1.2750582E0,-5.309617E-1,1.2992833E0,9.445562E-1,-1.1466465E0,6.853008E-2,9.3936646E-1,1.3189108E0,5.9810948E-2,-7.498494E-4,-3.225825E-2,-6.558476E-2,1.4240326E-2,5.502602E-2,4.4075083E-2,6.667694E-2],"categories":[],"categories_nodes":[],"categories_segments":[],"categories_sizes":[],"default_left":[0,0,0,0,0,0,0,0,0,0,0,0,0,0,0,0,0,0,0],"id":10,"left_children":[1,-1,3,5,7,9,11,13,-1,15,17,-1,-1,-1,-1,-1,-1,-1,-1],"loss_changes":[6.851314E2,0E0,6.341809E1,5.441284E-1,2.7066113E1,1.9845581E-1,4.551092E0,5.603409E-1,0E0,1.1630678E0,4.321289E-2,0E0,0E0,0E0,0E0,0E0,0E0,0E0,0E0],"parents":[2147483647,0,0,2,2,3,3,4,4,5,5,6,6,7,7,9,9,10,10],"right_children":[2,-1,4,6,8,10,12,14,-1,16,18,-1,-1,-1,-1,-1,-1,-1,-1],"split_conditions":[1E0,-6.71383E-2,9.997275E0,9.075947E0,2E0,2E0,4E0,2E0,6.853008E-2,4.473892E0,3.6157492E-1,5.9810948E-2,-7.498494E-4,-3.225825E-2,-6.558476E-2,1.4240326E-2,5.502602E-2,4.4075083E-2,6.667694E-2],"split_indices":[10,0,18,18,10,14,15,15,0,18,18,0,0,0,0,0,0,0,0],"split_type":[0,0,0,0,0,0,0,0,0,0,0,0,0,0,0,0,0,0,0],"sum_hessian":[4.5255435E2,2.1153304E2,2.4102132E2,2.2024535E2,2.077597E1,2.0247327E2,1.7772081E1,1.5994347E1,4.7816234E0,1.2997277E1,1.8947598E2,1.3884058E1,3.888024E0,5.1761475E0,1.0818199E1,3.1144764E0,9.8828E0,8.113866E0,1.8136212E2],"tree_param":{"num_deleted":"0","num_feature":"21","num_nodes":"19","size_leaf_vector":"1"}},{"base_weights":[-1.2242655E-2,-6.3173896E-1,7.9721963E-1,-3.6834723E-1,-1.1749817E0,1.022968E0,-1.0720673E0,-7.117328E-1,-4.3050867E-2,-1.2668729E0,-7.2122383E-1,7.6316607E-1,1.3330159E0,-6.5988235E-2,1.5718153E-2,-4.3690467E-1,-1.0572484E0,-3.860903E-1,2.6695397E-1,-3.4123864E-2,-6.544053E-2,-1.3301373E-1,-6.272722E-2,1.1293442E-1,8.297962E-1,6.899203E-2,8.786597E-1,-6.836799E-3,-4.684433E-2,-5.672236E-2,-7.737362E-3,-3.996692E-3,-6.7135826E-2,4.819816E-2,6.231468E-4,-5.144645E-2,2.779529E-2,-2.6978875E-2,3.2720186E-2,3.3026073E-2,4.726645E-2,2.6253564E-2,5.7249337E-2],"categories":[],"categories_nodes":[],"categories_segments":[],"categories_sizes":[],"default_left":[0,0,0,0,0,0,0,0,0,0,0,0,0,0,0,0,0,0,0,0,0,0,0,0,0,0,0,0,0,0,0,0,0,0,0,0,0,0,0,0,0,0,0],"id":11,"left_children":[1,3,5,7,9,11,13,15,17,19,21,23,25,-1,-1,27,29,31,33,-1,-1,35,-1,37,39,-1,41,-1,-1,-1,-1,-1,-1,-1,-1,-1,-1,-1,-1,-1,-1,-1,-1],"loss_changes":[2.2708946E2,3.6271423E1,8.394742E1,1.942945E1,2.559822E0,1.3134705E1,7.847786E0,7.579674E0,9.730161E0,7.721863E-1,4.96249E0,4.1491013E0,4.6322632E-1,0E0,0E0,7.2066107E0,2.389351E0,1.2598578E1,8.528049E0,0E0,0E0,6.061451E0,0E0,3.9780512E0,1.1096878E0,0E0,3.5101366E-1,0E0,0E0,0E0,0E0,0E0,0E0,0E0,0E0,0E0,0E0,0E0,0E0,0E0,0E0,0E0,0E0],"parents":[2147483647,0,0,1,1,2,2,3,3,4,4,5,5,6,6,7,7,8,8,9,9,10,10,11,11,12,12,15,15,16,16,17,17,18,18,21,21,23,23,24,24,26,26],"right_children":[2,4,6,8,10,12,14,16,18,20,22,24,26,-1,-1,28,30,32,34,-1,-1,36,-1,38,40,-1,42,-1,-1,-1,-1,-1,-1,-1,-1,-1,-1,-1,-1,-1,-1,-1,-1],"split_conditions":[1.2238144E2,9.075947E0,9.997275E0,4.972695E1,7.963263E1,2.8566983E2,4.8471967E2,1.3E1,5.275575E0,9.406603E0,1.2E1,3E0,1.9E1,-6.5988235E-2,1.5718153E-2,5.159283E0,8.108548E0,3.6809433E0,5.8887477E0,-3.4123864E-2,-6.544053E-2,6E0,-6.272722E-2,1.9648628E2,1.3E1,6.899203E-2,2.2E1,-6.836799E-3,-4.684433E-2,-5.672236E-2,-7.737362E-3,-3.996692E-3,-6.7135826E-2,4.819816E-2,6.231468E-4,-5.144645E-2,2.779529E-2,-2.6978875E-2,3.2720186E-2,3.3026073E-2,4.726645E-2,2.6253564E-2,5.7249337E-2],"split_indices":[7,18,18,7,7,7,7,14,18,18,14,14,14,0,0,18,18,18,18,0,0,14,0,7,14,0,14,0,0,0,0,0,0,0,0,0,0,0,0,0,0,0,0],"split_type":[0,0,0,0,0,0,0,0,0,0,0,0,0,0,0,0,0,0,0,0,0,0,0,0,0,0,0,0,0,0,0,0,0,0,0,0,0,0,0,0,0,0,0],"sum_hessian":[4.5085324E2,2.5551924E2,1.95334E2,1.7321423E2,8.2305016E1,1.7468994E2,2.0644062E1,8.368631E1,8.952792E1,6.695409E1,1.535093E1,9.692984E1,7.77601E1,1.7555676E1,3.088386E0,4.7872402E1,3.5813908E1,4.238304E1,4.7144882E1,5.639661E0,6.1314426E1,7.893945E0,7.456985E0,9.259821E0,8.767002E1,6.8648476E1,9.111624E0,3.0709284E1,1.7163116E1,3.2755074E1,3.058832E0,3.29283E1,9.454742E0,1.1863873E1,3.5281006E1,3.216918E0,4.677027E0,4.200904E0,5.058917E0,3.8288364E1,4.9381653E1,5.191144E0,3.9204798E0],"tree_param":{"num_deleted":"0","num_feature":"21","num_nodes":"43","size_leaf_vector":"1"}},{"base_weights":[-1.5365121E-2,-6.5532945E-2,1.0562707E0,1.1942424E0,-4.7214624E-1,2.2749905E-1,1.3406961E0,-1.0825489E0,6.650927E-2,6.937016E-1,-2.9630312E-1,1.0268507E0,7.311268E-2,-2.76641E-2,-6.29735E-2,1.5845401E-2,5.6755997E-2,-4.8842486E-2,1.7124072E-2,5.8601547E-2,2.568701E-2],"categories":[],"categories_nodes":[],"categories_segments":[],"categories_sizes":[],"default_left":[0,0,0,0,0,0,0,0,0,0,0,0,0,0,0,0,0,0,0,0,0],"id":12,"left_children":[1,-1,3,5,7,9,11,13,-1,15,17,19,-1,-1,-1,-1,-1,-1,-1,-1,-1],"loss_changes":[6.1471234E2,0E0,5.1671387E1,3.120758E1,2.4304314E1,7.6502547E0,5.8647766E0,8.085232E-1,0E0,2.3728585E0,6.880183E0,3.6637535E0,0E0,0E0,0E0,0E0,0E0,0E0,0E0,0E0,0E0],"parents":[2147483647,0,0,2,2,3,3,4,4,5,5,6,6,7,7,9,9,10,10,11,11],"right_children":[2,-1,4,6,8,10,12,14,-1,16,18,20,-1,-1,-1,-1,-1,-1,-1,-1,-1],"split_conditions":[1E0,-6.5532945E-2,9.997275E0,4.9371277E1,2E0,4.7286224E0,1.24232185E2,2E0,6.650927E-2,1E0,4E0,9.823308E1,7.311268E-2,-2.76641E-2,-6.29735E-2,1.5845401E-2,5.6755997E-2,-4.8842486E-2,1.7124072E-2,5.8601547E-2,2.568701E-2],"split_indices":[10,0,18,7,10,18,7,15,0,16,15,7,0,0,0,0,0,0,0,0,0],"split_type":[0,0,0,0,0,0,0,0,0,0,0,0,0,0,0,0,0,0,0,0,0],"sum_hessian":[4.4085242E2,1.9949652E2,2.413559E2,2.2157295E2,1.978295E1,2.948637E1,1.9208658E2,1.5076346E1,4.7066026E0,1.5429346E1,1.4057024E1,5.6265064E1,1.3582152E2,4.8110805E0,1.0265265E1,9.250809E0,6.178537E0,6.5497923E0,7.5072317E0,4.2855343E1,1.3409723E1],"tree_param":{"num_deleted":"0","num_feature":"21","num_nodes":"21","size_leaf_vector":"1"}},{"base_weights":[-4.598116E-2,-6.4566426E-2,1.0111291E0,1.1590734E0,-6.879343E-1,1.7142235E-1,1.2957711E0,-6.064857E-2,-8.479439E-2,-3.911261E-2,4.119706E-1,8.863738E-1,7.058692E-2,2.7135557E-2,-2.2303985E-2,5.342362E-2,8.251395E-3,2.84037E-2,5.3486396E-2],"categories":[],"categories_nodes":[],"categories_segments":[],"categories_sizes":[],"default_left":[0,0,0,0,0,0,0,0,0,0,0,0,0,0,0,0,0,0,0],"id":13,"left_children":[1,-1,3,5,7,9,11,-1,13,-1,15,17,-1,-1,-1,-1,-1,-1,-1],"loss_changes":[5.686157E2,0E0,5.9527374E1,2.884555E1,6.0222588E0,6.5915723E0,7.7204285E0,0E0,2.526575E0,0E0,3.4679165E0,1.9835854E0,0E0,0E0,0E0,0E0,0E0,0E0,0E0],"parents":[2147483647,0,0,2,2,3,3,4,4,5,5,6,6,8,8,10,10,11,11],"right_children":[2,-1,4,6,8,10,12,-1,14,-1,16,18,-1,-1,-1,-1,-1,-1,-1],"split_conditions":[1E0,-6.4566426E-2,9.997275E0,5.2186028E1,7.963263E1,3.2973235E0,1.1794145E2,-6.064857E-2,9.674037E1,-3.911261E-2,4.217219E0,5.2162175E0,7.058692E-2,2.7135557E-2,-2.2303985E-2,5.342362E-2,8.251395E-3,2.84037E-2,5.3486396E-2],"split_indices":[10,0,18,7,7,18,7,0,7,0,18,18,0,0,0,0,0,0,0],"split_type":[0,0,0,0,0,0,0,0,0,0,0,0,0,0,0,0,0,0,0],"sum_hessian":[4.2993295E2,1.972902E2,2.3264276E2,2.1430057E2,1.83422E1,2.6328588E1,1.8797197E2,9.26546E0,9.076738E0,4.8496747E0,2.1478914E1,4.3400227E1,1.4457175E2,3.1329846E0,5.9437537E0,4.9616013E0,1.6517313E1,1.7360651E1,2.6039577E1],"tree_param":{"num_deleted":"0","num_feature":"21","num_nodes":"19","size_leaf_vector":"1"}},{"base_weights":[9.384157E-3,-6.361157E-2,1.0224125E0,1.1504935E0,-7.456899E-1,7.577216E-1,6.873948E-2,-5.9777547E-2,-8.920051E-2,4.5254716E-1,1.1214298E0,1.8255962E-2,-2.578399E-2,-3.184843E-2,2.9158536E-2,3.2339454E-2,6.343167E-2],"categories":[],"categories_nodes":[],"categories_segments":[],"categories_sizes":[],"default_left":[0,0,0,0,0,0,0,0,0,0,0,0,0,0,0,0,0],"id":14,"left_children":[1,-1,3,5,7,9,-1,-1,11,13,15,-1,-1,-1,-1,-1,-1],"loss_changes":[5.5546436E2,0E0,5.4970993E1,1.8621948E1,4.8392715E0,8.744972E0,0E0,0E0,1.7170926E0,7.0608864E0,1.7894783E0,0E0,0E0,0E0,0E0,0E0,0E0],"parents":[2147483647,0,0,2,2,3,3,4,4,5,5,8,8,9,9,10,10],"right_children":[2,-1,4,6,8,10,-1,-1,12,14,16,-1,-1,-1,-1,-1,-1],"split_conditions":[1E0,-6.361157E-2,9.997275E0,1.1794145E2,9.1395195E1,1E0,6.873948E-2,-5.9777547E-2,1.2E1,2.5740717E1,4.0573936E0,1.8255962E-2,-2.578399E-2,-3.184843E-2,2.9158536E-2,3.2339454E-2,6.343167E-2],"split_indices":[10,0,18,7,7,16,0,0,14,7,18,0,0,0,0,0,0],"split_type":[0,0,0,0,0,0,0,0,0,0,0,0,0,0,0,0,0],"sum_hessian":[4.2583365E2,1.8788205E2,2.3795161E2,2.2220447E2,1.5747139E1,8.235981E1,1.3984467E2,8.856841E0,6.8902984E0,4.600388E1,3.635593E1,3.4059181E0,3.4843802E0,4.5100126E0,4.1493866E1,9.883043E0,2.6472885E1],"tree_param":{"num_deleted":"0","num_feature":"21","num_nodes":"17","size_leaf_vector":"1"}},{"base_weights":[2.441828E-2,-6.2707506E-2,1.0032734E0,5.538356E-1,1.2875971E0,6.3416797E-1,-3.7385866E-2,1.1499635E0,6.8915635E-2,3.31005E-1,1.0290684E0,5.9430636E-2,3.1287275E-2,-4.2089827E-2,2.5793193E-2,3.9678138E-2,6.370827E-2],"categories":[],"categories_nodes":[],"categories_segments":[],"categories_sizes":[],"default_left":[0,0,0,0,0,0,0,0,0,0,0,0,0,0,0,0,0],"id":15,"left_children":[1,-1,3,5,7,9,-1,11,-1,13,15,-1,-1,-1,-1,-1,-1],"loss_changes":[5.271641E2,0E0,2.9770874E1,1.0322607E1,2.2993469E-1,1.0345219E1,0E0,5.485306E-1,0E0,1.1701049E1,1.1990128E0,0E0,0E0,0E0,0E0,0E0,0E0],"parents":[2147483647,0,0,2,2,3,3,4,4,5,5,7,7,9,9,10,10],"right_children":[2,-1,4,6,8,10,-1,12,-1,14,16,-1,-1,-1,-1,-1,-1],"split_conditions":[1E0,-6.2707506E-2,1.24232185E2,1E0,2.615388E2,1E0,-3.7385866E-2,2.4340404E2,6.8915635E-2,2.7639658E1,7.7353035E1,5.9430636E-2,3.1287275E-2,-4.2089827E-2,2.5793193E-2,3.9678138E-2,6.370827E-2],"split_indices":[10,0,7,11,7,16,0,7,0,7,7,0,0,0,0,0,0],"split_type":[0,0,0,0,0,0,0,0,0,0,0,0,0,0,0,0,0],"sum_hessian":[4.1920935E2,1.8165396E2,2.3755539E2,9.319212E1,1.4436327E2,8.825759E1,4.934534E0,6.278404E1,8.157923E1,5.0967957E1,3.7289635E1,5.72926E1,5.49144E0,6.4559155E0,4.451204E1,2.1178078E1,1.6111555E1],"tree_param":{"num_deleted":"0","num_feature":"21","num_nodes":"17","size_leaf_vector":"1"}},{"base_weights":[-2.3727246E-2,-6.1957117E-2,9.0616894E-1,1.0496044E0,-7.275289E-1,5.7704484E-1,6.613653E-2,-6.422367E-2,6.158333E-2,8.0988E-1,2.3336165E-1,-9.34806E-3,4.5916576E-2,2.6187753E-2,-7.655424E-2],"categories":[],"categories_nodes":[],"categories_segments":[],"categories_sizes":[],"default_left":[0,0,0,0,0,0,0,0,0,0,0,0,0,0,0],"id":16,"left_children":[1,-1,3,5,7,9,-1,-1,-1,11,13,-1,-1,-1,-1],"loss_changes":[4.51728E2,0E0,5.382872E1,2.61586E1,2.2170261E1,6.0665855E0,0E0,0E0,0E0,5.166046E0,1.769846E1,0E0,0E0,0E0,0E0],"parents":[2147483647,0,0,2,2,3,3,4,4,5,5,9,9,10,10],"right_children":[2,-1,4,6,8,10,-1,-1,-1,12,14,-1,-1,-1,-1],"split_conditions":[1E0,-6.1957117E-2,9.997275E0,1.2238144E2,2E0,1.3E1,6.613653E-2,-6.422367E-2,6.158333E-2,2E0,7.7318764E0,-9.34806E-3,4.5916576E-2,2.6187753E-2,-7.655424E-2],"split_indices":[10,0,18,7,10,14,0,0,0,14,18,0,0,0,0],"split_type":[0,0,0,0,0,0,0,0,0,0,0,0,0,0,0],"sum_hessian":[3.9769156E2,1.7223729E2,2.2545427E2,2.0758614E2,1.786814E1,7.717374E1,1.304124E2,1.4181206E1,3.686933E0,4.519738E1,3.1976355E1,4.363745E0,4.0833637E1,2.8061192E1,3.9151623E0],"tree_param":{"num_deleted":"0","num_feature":"21","num_nodes":"15","size_leaf_vector":"1"}},{"base_weights":[3.0641496E-2,-6.1202705E-2,9.5256865E-1,1.078905E0,-6.1328954E-1,4.1546708E-1,1.2107301E0,-5.752417E-2,-2.6310836E-3,7.6097363E-1,-3.4094432E-1,9.88573E-1,6.370212E-2,2.9757315E-2,-3.0508218E-2,5.1479436E-2,-3.4132507E-3,-4.3946344E-2,1.3772455E-2,3.440608E-2,5.8651477E-2],"categories":[],"categories_nodes":[],"categories_segments":[],"categories_sizes":[],"default_left":[0,0,0,0,0,0,0,0,0,0,0,0,0,0,0,0,0,0,0,0,0],"id":17,"left_children":[1,-1,3,5,7,9,11,-1,13,15,17,19,-1,-1,-1,-1,-1,-1,-1,-1,-1],"loss_changes":[4.5784702E2,0E0,4.5793793E1,1.7991821E1,5.7935567E0,9.818562E0,1.2145386E0,0E0,3.7304294E0,5.731908E0,4.2741933E0,1.6021271E0,0E0,0E0,0E0,0E0,0E0,0E0,0E0,0E0,0E0],"parents":[2147483647,0,0,2,2,3,3,4,4,5,5,6,6,8,8,9,9,10,10,11,11],"right_children":[2,-1,4,6,8,10,12,-1,14,16,18,20,-1,-1,-1,-1,-1,-1,-1,-1,-1],"split_conditions":[1E0,-6.1202705E-2,9.997275E0,5.5100704E1,7.839445E1,1.3E1,1.24232185E2,-5.752417E-2,1.1E1,3.5545105E1,1E0,5.275575E0,6.370212E-2,2.9757315E-2,-3.0508218E-2,5.1479436E-2,-3.4132507E-3,-4.3946344E-2,1.3772455E-2,3.440608E-2,5.8651477E-2],"split_indices":[10,0,18,7,7,14,7,0,14,7,16,18,0,0,0,0,0,0,0,0,0],"split_type":[0,0,0,0,0,0,0,0,0,0,0,0,0,0,0,0,0,0,0,0,0],"sum_hessian":[3.9380078E2,1.6665889E2,2.271419E2,2.1047165E2,1.6670254E1,3.557658E1,1.7489507E2,8.3983E0,8.271955E0,2.4417398E1,1.11591835E1,4.2473568E1,1.324215E2,4.1797314E0,4.092223E0,1.826063E1,6.156769E0,5.7311606E0,5.4280233E0,1.7956203E1,2.4517365E1],"tree_param":{"num_deleted":"0","num_feature":"21","num_nodes":"21","size_leaf_vector":"1"}},{"base_weights":[1.5520809E-3,-6.0516175E-2,8.7219006E-1,-1.8476996E-1,1.0622414E0,3.6854655E-1,-1.1435672E0,1.1410303E0,-2.767745E-1,9.7127897E-1,-1.6591333E-1,-6.937339E-2,-2.039184E-2,8.129129E-1,6.2222242E-2,-7.7527654E-1,4.0567353E-2,6.0387254E-2,1.4918858E-2,-3.675665E-2,1.3153528E-2,4.5822058E-2,6.413271E-3,-5.4551065E-2,-1.3442889E-2],"categories":[],"categories_nodes":[],"categories_segments":[],"categories_sizes":[],"default_left":[0,0,0,0,0,0,0,0,0,0,0,0,0,0,0,0,0,0,0,0,0,0,0,0,0],"id":18,"left_children":[1,-1,3,5,7,9,11,13,15,17,19,-1,-1,21,-1,23,-1,-1,-1,-1,-1,-1,-1,-1,-1],"loss_changes":[4.1272736E2,0E0,4.592253E1,1.9278416E1,2.0686554E1,7.6650486E0,1.8118267E0,5.182846E0,6.8859167E0,1.4048548E0,3.4167542E0,0E0,0E0,3.1877422E0,0E0,1.0533614E0,0E0,0E0,0E0,0E0,0E0,0E0,0E0,0E0,0E0],"parents":[2147483647,0,0,2,2,3,3,4,4,5,5,6,6,7,7,8,8,9,9,10,10,13,13,15,15],"right_children":[2,-1,4,6,8,10,12,14,16,18,20,-1,-1,22,-1,24,-1,-1,-1,-1,-1,-1,-1,-1,-1],"split_conditions":[1E0,-6.0516175E-2,5.3382133E1,1.3E1,9.997275E0,4.7286224E0,2.1E1,1.1228249E2,2.2285646E2,3.0419651E1,2.997196E1,-6.937339E-2,-2.039184E-2,9.823308E1,6.2222242E-2,1.2561595E1,4.0567353E-2,6.0387254E-2,1.4918858E-2,-3.675665E-2,1.3153528E-2,4.5822058E-2,6.413271E-3,-5.4551065E-2,-1.3442889E-2],"split_indices":[10,0,7,14,18,18,14,7,7,7,7,0,0,7,0,18,0,0,0,0,0,0,0,0,0],"split_type":[0,0,0,0,0,0,0,0,0,0,0,0,0,0,0,0,0,0,0,0,0,0,0,0,0],"sum_hessian":[3.891714E2,1.6253806E2,2.2663333E2,3.4544403E1,1.9208893E2,2.2294174E1,1.2250227E1,1.81554E2,1.05349245E1,1.00937395E1,1.2200436E1,8.534978E0,3.7152498E0,4.5631973E1,1.3592203E2,7.422128E0,3.1127965E0,6.8808813E0,3.2128587E0,4.936509E0,7.263926E0,3.9344048E1,6.287929E0,3.8606706E0,3.5614576E0],"tree_param":{"num_deleted":"0","num_feature":"21","num_nodes":"25","size_leaf_vector":"1"}},{"base_weights":[-4.5734342E-2,-5.9833676E-2,8.148153E-1,3.3392233E-1,1.1769239E0,5.758338E-1,-6.529717E-1,6.1104394E-2,1.30268475E-2,-4.1531753E-2,7.084955E-1,-4.285101E-2,-6.475483E-2,3.9518263E-2,-3.2250132E-2,-3.5586413E-2,4.457646E-2],"categories":[],"categories_nodes":[],"categories_segments":[],"categories_sizes":[],"default_left":[0,0,0,0,0,0,0,0,0,0,0,0,0,0,0,0,0],"id":19,"left_children":[1,-1,3,5,7,9,11,-1,-1,-1,13,15,-1,-1,-1,-1,-1],"loss_changes":[3.6336084E2,0E0,3.6166245E1,2.223948E1,4.6220245E0,1.4410851E1,7.1912823E0,0E0,0E0,0E0,8.070976E0,7.2089195E0,0E0,0E0,0E0,0E0,0E0],"parents":[2147483647,0,0,2,2,3,3,4,4,5,5,6,6,10,10,11,11],"right_children":[2,-1,4,6,8,10,12,-1,-1,-1,14,16,-1,-1,-1,-1,-1],"split_conditions":[1E0,-5.9833676E-2,1.24232185E2,9.075947E0,9.997275E0,2.4433609E1,1.1E1,6.1104394E-2,1.30268475E-2,-4.1531753E-2,1E0,7.963263E1,-6.475483E-2,3.9518263E-2,-3.2250132E-2,-3.5586413E-2,4.457646E-2],"split_indices":[10,0,7,18,18,7,14,0,0,0,11,7,0,0,0,0,0],"split_type":[0,0,0,0,0,0,0,0,0,0,0,0,0,0,0,0,0],"sum_hessian":[3.648835E2,1.5593636E2,2.0894716E2,9.057823E1,1.1836893E2,7.308087E1,1.749736E1,1.1249121E2,5.8777113E0,5.8455477E0,6.723532E1,9.519272E0,7.978089E0,6.379272E1,3.4426033E0,5.686717E0,3.832555E0],"tree_param":{"num_deleted":"0","num_feature":"21","num_nodes":"17","size_leaf_vector":"1"}},{"base_weights":[5.9844874E-2,-5.9263434E-2,8.779013E-1,9.76687E-1,-3.3281553E-1,1.003117E0,-3.0002048E-2,-9.411767E-1,6.195259E-2,4.846785E-1,1.0377482E0,-5.845758E-2,-1.9802656E-2,-1.8126698E-3,3.8480293E-2,5.3521045E-2,3.685052E-2],"categories":[],"categories_nodes":[],"categories_segments":[],"categories_sizes":[],"default_left":[0,0,0,0,0,0,0,0,0,0,0,0,0,0,0,0,0],"id":20,"left_children":[1,-1,3,5,7,9,-1,11,-1,13,15,-1,-1,-1,-1,-1,-1],"loss_changes":[3.8652716E2,0E0,2.771045E1,9.434601E0,1.8397E1,3.2464447E0,0E0,1.2220316E0,0E0,2.2472954E0,1.125946E0,0E0,0E0,0E0,0E0,0E0,0E0],"parents":[2147483647,0,0,2,2,3,3,4,4,5,5,7,7,9,9,10,10],"right_children":[2,-1,4,6,8,10,-1,12,-1,14,16,-1,-1,-1,-1,-1,-1],"split_conditions":[1E0,-5.9263434E-2,9.997275E0,1E0,2E0,2E0,-3.0002048E-2,1E0,6.195259E-2,5.722241E0,8.569488E0,-5.845758E-2,-1.9802656E-2,-1.8126698E-3,3.8480293E-2,5.3521045E-2,3.685052E-2],"split_indices":[10,0,18,11,10,14,0,16,0,18,18,0,0,0,0,0,0],"split_type":[0,0,0,0,0,0,0,0,0,0,0,0,0,0,0,0,0],"sum_hessian":[3.774575E2,1.4948566E2,2.2797183E2,2.109529E2,1.7018927E1,2.0783289E2,3.120014E0,1.2559319E1,4.459607E0,1.3952697E1,1.9388019E2,8.04859E0,4.5107284E0,5.241832E0,8.710865E0,1.7257236E2,2.1307835E1],"tree_param":{"num_deleted":"0","num_feature":"21","num_nodes":"17","size_leaf_vector":"1"}},{"base_weights":[-2.509717E-2,-5.8693092E-2,7.738572E-1,2.776638E-1,1.1291442E0,4.4237095E-1,-6.9076157E-1,5.894614E-2,6.978291E-4,-2.4951962E-1,5.290634E-1,-5.5038083E-2,5.1296293E-3,2.7107636E-2,-3.7722293E-2,1.6725315E-2,3.970748E-2],"categories":[],"categories_nodes":[],"categories_segments":[],"categories_sizes":[],"default_left":[0,0,0,0,0,0,0,0,0,0,0,0,0,0,0,0,0],"id":21,"left_children":[1,-1,3,5,7,9,11,-1,-1,13,15,-1,-1,-1,-1,-1,-1],"loss_changes":[3.21912E2,0E0,3.6158424E1,1.4286396E1,6.6580505E0,4.661805E0,4.38408E0,0E0,0E0,4.0419703E0,3.212078E0,0E0,0E0,0E0,0E0,0E0,0E0],"parents":[2147483647,0,0,2,2,3,3,4,4,5,5,6,6,9,9,10,10],"right_children":[2,-1,4,6,8,10,12,-1,-1,14,16,-1,-1,-1,-1,-1,-1],"split_conditions":[1E0,-5.8693092E-2,1.24232185E2,9.997275E0,9.997275E0,2.4433609E1,7.963263E1,5.894614E-2,6.978291E-4,3.9436862E0,1E0,-5.5038083E-2,5.1296293E-3,2.7107636E-2,-3.7722293E-2,1.6725315E-2,3.970748E-2],"split_indices":[10,0,7,18,18,7,7,0,0,18,16,0,0,0,0,0,0],"split_type":[0,0,0,0,0,0,0,0,0,0,0,0,0,0,0,0,0],"sum_hessian":[3.4874933E2,1.4286449E2,2.0588483E2,8.665045E1,1.1923438E2,7.451957E1,1.2130879E1,1.1408483E2,5.1495466E0,8.088359E0,6.6431206E1,7.7422557E0,4.3886237E0,3.1210883E0,4.967271E0,3.9616783E1,2.6814426E1],"tree_param":{"num_deleted":"0","num_feature":"21","num_nodes":"17","size_leaf_vector":"1"}},{"base_weights":[-2.645608E-2,-5.8150988E-2,7.7612424E-1,-1.3669887E-1,9.6860796E-1,2.559346E-1,-9.781292E-1,1.0383186E0,3.996474E-2,-3.316011E-2,4.785575E-1,-6.0070205E-2,-2.133119E-2,6.9326985E-1,5.8796495E-2,-7.4153215E-1,6.041844E-2,5.1802196E-2,6.388116E-3,1.910701E-2,4.680379E-2,-6.0068904E-3,-5.6280375E-2],"categories":[],"categories_nodes":[],"categories_segments":[],"categories_sizes":[],"default_left":[0,0,0,0,0,0,0,0,0,0,0,0,0,0,0,0,0,0,0,0,0,0,0],"id":22,"left_children":[1,-1,3,5,7,9,11,13,15,-1,17,-1,-1,19,-1,21,-1,-1,-1,-1,-1,-1,-1],"loss_changes":[3.0739532E2,0E0,3.4839867E1,1.19045725E1,1.0527222E1,5.401193E0,8.950205E-1,6.393509E0,1.2254722E1,0E0,3.892634E0,0E0,0E0,3.0962696E0,0E0,1.7916555E0,0E0,0E0,0E0,0E0,0E0,0E0,0E0],"parents":[2147483647,0,0,2,2,3,3,4,4,5,5,6,6,7,7,8,8,10,10,13,13,15,15],"right_children":[2,-1,4,6,8,10,12,14,16,-1,18,-1,-1,20,-1,22,-1,-1,-1,-1,-1,-1,-1],"split_conditions":[1E0,-5.8150988E-2,6.1261578E1,7.5663657E0,9.997275E0,2.4433609E1,5E0,1.24232185E2,2E0,-3.316011E-2,3.2914833E1,-6.0070205E-2,-2.133119E-2,5.5556736E0,5.8796495E-2,9.674037E1,6.041844E-2,5.1802196E-2,6.388116E-3,1.910701E-2,4.680379E-2,-6.0068904E-3,-5.6280375E-2],"split_indices":[10,0,7,18,18,7,15,7,10,0,7,0,0,18,0,7,0,0,0,0,0,0,0],"split_type":[0,0,0,0,0,0,0,0,0,0,0,0,0,0,0,0,0,0,0,0,0,0,0],"sum_hessian":[3.3499887E2,1.3846474E2,1.9653413E2,3.4275917E1,1.6225821E2,2.3845034E1,1.0430884E1,1.5081859E2,1.143963E1,4.263481E0,1.9581553E1,6.5861135E0,3.8447711E0,4.4721375E1,1.0609721E2,7.0736833E0,4.3659463E0,6.808313E0,1.2773239E1,2.0730862E1,2.3990513E1,3.2035186E0,3.8701644E0],"tree_param":{"num_deleted":"0","num_feature":"21","num_nodes":"23","size_leaf_vector":"1"}},{"base_weights":[-2.5499826E-2,1.7700298E-1,-9.562234E-1,2.3565874E-1,-9.961304E-1,-1.0671722E0,4.0464323E-2,-2.8071404E-1,2.7235332E-1,-5.7373E-2,-2.5145764E-2,-2.0120174E-2,-5.4985512E-2,-7.733456E-1,1.8204276E-1,2.2904515E-1,4.7980928E-1,-4.891377E-2,-2.3657886E-2,2.6314138E-2,-3.2264253E-3,1.7073793E-2,4.460994E-3,7.36432E-3,3.473402E-2],"categories":[],"categories_nodes":[],"categories_segments":[],"categories_sizes":[],"default_left":[0,0,0,0,0,0,0,0,0,0,0,0,0,0,0,0,0,0,0,0,0,0,0,0,0],"id":23,"left_children":[1,3,5,7,9,11,-1,13,15,-1,-1,-1,-1,17,19,21,23,-1,-1,-1,-1,-1,-1,-1,-1],"loss_changes":[6.2987694E1,1.9129189E1,1.2560799E1,5.046876E0,4.1311646E-1,7.8208923E-1,0E0,4.2206354E0,2.0951004E0,0E0,0E0,0E0,0E0,8.210516E-2,8.85944E-1,3.191471E0,2.8608408E0,0E0,0E0,0E0,0E0,0E0,0E0,0E0,0E0],"parents":[2147483647,0,0,1,1,2,2,3,3,4,4,5,5,7,7,8,8,13,13,14,14,15,15,16,16],"right_children":[2,4,6,8,10,12,-1,14,16,-1,-1,-1,-1,18,20,22,24,-1,-1,-1,-1,-1,-1,-1,-1],"split_conditions":[9.997275E0,1E0,1.4921366E1,2E0,2E1,1E0,4.0464323E-2,5.822486E0,6E0,-5.7373E-2,-2.5145764E-2,-2.0120174E-2,-5.4985512E-2,3.1837387E0,6.1939645E0,3E0,5.275575E0,-4.891377E-2,-2.3657886E-2,2.6314138E-2,-3.2264253E-3,1.7073793E-2,4.460994E-3,7.36432E-3,3.473402E-2],"split_indices":[18,11,18,14,14,14,0,18,15,0,0,0,0,18,18,15,18,0,0,0,0,0,0,0,0],"split_type":[0,0,0,0,0,0,0,0,0,0,0,0,0,0,0,0,0,0,0,0,0,0,0,0,0],"sum_hessian":[3.3230005E2,2.7358453E2,5.8715515E1,2.6131796E2,1.2266573E1,5.561602E1,3.0994978E0,1.6896559E1,2.444214E2,8.371513E0,3.8950596E0,3.2189174E0,5.2397102E1,7.8590117E0,9.037546E0,2.0394934E2,4.0472054E1,3.3281207E0,4.530891E0,3.2983253E0,5.739221E0,1.12249565E2,9.169978E1,1.6548283E1,2.3923773E1],"tree_param":{"num_deleted":"0","num_feature":"21","num_nodes":"25","size_leaf_vector":"1"}},{"base_weights":[-4.6085324E-3,-5.75546E-2,7.7570295E-1,8.25762E-1,-4.376654E-2,7.85276E-1,9.9389786E-1,3.3509174E-1,8.1597894E-1,5.6510855E-2,6.854707E-1,2.5531886E-2,-1.1801068E-3,4.1818544E-2,2.5616461E-2,3.884093E-2,1.4646833E-2],"categories":[],"categories_nodes":[],"categories_segments":[],"categories_sizes":[],"default_left":[0,0,0,0,0,0,0,0,0,0,0,0,0,0,0,0,0],"id":24,"left_children":[1,-1,3,5,-1,7,9,11,13,-1,15,-1,-1,-1,-1,-1,-1],"loss_changes":[2.9709436E2,0E0,1.7054733E1,5.2856445E-1,0E0,1.9346237E0,6.3609314E-1,7.611275E-1,4.9320984E-1,0E0,2.3235607E-1,0E0,0E0,0E0,0E0,0E0,0E0],"parents":[2147483647,0,0,2,2,3,3,5,5,6,6,7,7,8,8,10,10],"right_children":[2,-1,4,6,-1,8,10,12,14,-1,16,-1,-1,-1,-1,-1,-1],"split_conditions":[1E0,-5.75546E-2,1E0,6E0,-4.376654E-2,2E0,1.4E1,4E0,5E1,5.6510855E-2,1E0,2.5531886E-2,-1.1801068E-3,4.1818544E-2,2.5616461E-2,3.884093E-2,1.4646833E-2],"split_indices":[10,0,11,15,0,14,14,15,1,0,16,0,0,0,0,0,0],"split_type":[0,0,0,0,0,0,0,0,0,0,0,0,0,0,0,0,0],"sum_hessian":[3.3009406E2,1.3348874E2,1.9660533E2,1.9130486E2,5.300476E0,1.587495E2,3.255536E1,1.0896262E1,1.4785324E2,2.0729044E1,1.1826315E1,7.0314465E0,3.8648162E0,1.3690485E2,1.0948385E1,8.799557E0,3.0267582E0],"tree_param":{"num_deleted":"0","num_feature":"21","num_nodes":"17","size_leaf_vector":"1"}},{"base_weights":[-4.767419E-2,-5.711006E-2,6.8719906E-1,2.0785537E-1,1.0329677E0,-1.1100444E-1,6.487835E-1,1.0932038E0,-1.6791878E-2,-7.443668E-1,2.3594247E-1,8.250433E-1,-2.2908999E-2,5.5277962E-2,2.977146E-2,-3.2913683E-3,-6.9663934E-2,2.8786212E-2,-1.903204E-2,-7.703358E-3,5.0244708E-2],"categories":[],"categories_nodes":[],"categories_segments":[],"categories_sizes":[],"default_left":[0,0,0,0,0,0,0,0,0,0,0,0,0,0,0,0,0,0,0,0,0],"id":25,"left_children":[1,-1,3,5,7,9,11,13,-1,15,17,19,-1,-1,-1,-1,-1,-1,-1,-1,-1],"loss_changes":[2.5993207E2,0E0,3.1837814E1,1.1641861E1,9.6096115E0,1.0857495E1,7.144883E0,3.5095215E-3,0E0,7.5894346E0,6.9580274E0,5.4860554E0,0E0,0E0,0E0,0E0,0E0,0E0,0E0,0E0,0E0],"parents":[2147483647,0,0,2,2,3,3,4,4,5,5,6,6,7,7,9,9,10,10,11,11],"right_children":[2,-1,4,6,8,10,12,14,-1,16,18,20,-1,-1,-1,-1,-1,-1,-1,-1,-1],"split_conditions":[1E0,-5.711006E-2,1.2238144E2,1E0,9.997275E0,4.5257626E1,9.406603E0,3E0,-1.6791878E-2,7E0,8.652136E1,1.9333665E0,-2.2908999E-2,5.5277962E-2,2.977146E-2,-3.2913683E-3,-6.9663934E-2,2.8786212E-2,-1.903204E-2,-7.703358E-3,5.0244708E-2],"split_indices":[10,0,7,16,18,7,18,2,0,14,7,18,0,0,0,0,0,0,0,0,0],"split_type":[0,0,0,0,0,0,0,0,0,0,0,0,0,0,0,0,0,0,0,0,0],"sum_hessian":[3.2118665E2,1.2879857E2,1.9238806E2,8.129243E1,1.1109564E2,4.7610706E1,3.368172E1,1.0660565E2,4.489986E0,1.6444778E1,3.116593E1,2.9274992E1,4.4067264E0,1.02832214E2,3.7734423E0,8.577302E0,7.867475E0,2.0135878E1,1.1030051E1,4.565221E0,2.4709772E1],"tree_param":{"num_deleted":"0","num_feature":"21","num_nodes":"21","size_leaf_vector":"1"}},{"base_weights":[5.1070075E-3,-3.618055E-1,7.86144E-1,-1.8044953E-1,-1.0071999E0,9.072837E-1,-3.0170295E-1,-6.092323E-1,1.0704974E-1,-1.0485971E0,-2.0244021E-2,6.5708363E-1,5.2250385E-2,-7.7676576E-1,3.220281E-2,-3.6220324E-1,-8.7857145E-1,-5.210842E-1,1.7777221E-1,-5.5759955E-2,-6.9979846E-1,3.4680087E-3,7.2400093E-1,-1.9618591E-2,-4.7760602E-2,-3.0363232E-2,4.087262E-3,-6.478982E-2,-2.5308156E-2,7.911682E-3,-5.0099578E-2,-3.4939114E-3,1.782214E-2,-6.346421E-4,-5.09909E-2,3.9295577E-2,6.5275813E-3],"categories":[],"categories_nodes":[],"categories_segments":[],"categories_sizes":[],"default_left":[0,0,0,0,0,0,0,0,0,0,0,0,0,0,0,0,0,0,0,0,0,0,0,0,0,0,0,0,0,0,0,0,0,0,0,0,0],"id":26,"left_children":[1,3,5,7,9,11,13,15,17,19,-1,21,-1,23,-1,25,27,29,31,-1,33,-1,35,-1,-1,-1,-1,-1,-1,-1,-1,-1,-1,-1,-1,-1,-1],"loss_changes":[8.917241E1,2.4599419E1,1.3380074E1,2.059002E1,7.2803116E-1,2.4056244E0,5.3148303E0,4.1380863E0,4.558012E0,2.0975494E-1,0E0,1.3087454E0,0E0,1.4556599E-1,0E0,4.0355506E0,4.2137127E0,3.5648203E0,4.0555534E0,0E0,2.0800543E0,0E0,1.0332661E0,0E0,0E0,0E0,0E0,0E0,0E0,0E0,0E0,0E0,0E0,0E0,0E0,0E0,0E0],"parents":[2147483647,0,0,1,1,2,2,3,3,4,4,5,5,6,6,7,7,8,8,9,9,11,11,13,13,15,15,16,16,17,17,18,18,20,20,22,22],"right_children":[2,4,6,8,10,12,14,16,18,20,-1,22,-1,24,-1,26,28,30,32,-1,34,-1,36,-1,-1,-1,-1,-1,-1,-1,-1,-1,-1,-1,-1,-1,-1],"split_conditions":[1.7983595E2,9.997275E0,9.997275E0,4.972695E1,1.4680722E1,2.7876547E2,1.4103703E1,5.159283E0,1E0,9.605437E1,-2.0244021E-2,1.7054715E0,5.2250385E-2,1.1398166E1,3.220281E-2,3.88152E0,7.3283553E0,4.167841E0,5.275575E0,-5.5759955E-2,2E0,3.4680087E-3,7.792059E0,-1.9618591E-2,-4.7760602E-2,-3.0363232E-2,4.087262E-3,-6.478982E-2,-2.5308156E-2,7.911682E-3,-5.0099578E-2,-3.4939114E-3,1.782214E-2,-6.346421E-4,-5.09909E-2,3.9295577E-2,6.5275813E-3],"split_indices":[7,18,18,7,18,7,18,18,15,7,0,18,0,18,0,18,18,18,18,0,15,0,18,0,0,0,0,0,0,0,0,0,0,0,0,0,0],"split_type":[0,0,0,0,0,0,0,0,0,0,0,0,0,0,0,0,0,0,0,0,0,0,0,0,0,0,0,0,0,0,0,0,0,0,0,0,0],"sum_hessian":[3.0917648E2,2.1072137E2,9.84551E1,1.6549643E2,4.5224945E1,8.873931E1,9.715789E0,6.597732E1,9.951911E1,4.162326E1,3.6016867E0,3.355383E1,5.5185486E1,6.58618E0,3.1296086E0,3.5637005E1,3.0340315E1,9.42665E0,9.009246E1,3.3104748E1,8.518512E0,3.6380417E0,2.9915789E1,3.102297E0,3.4838831E0,2.2724897E1,1.2912107E1,1.313977E1,1.7200544E1,4.185411E0,5.2412386E0,3.8012825E1,5.2079636E1,3.0371616E0,5.48135E0,2.679603E1,3.1197596E0],"tree_param":{"num_deleted":"0","num_feature":"21","num_nodes":"37","size_leaf_vector":"1"}},{"base_weights":[1.0943465E-2,-5.6564588E-2,7.3837274E-1,8.527252E-1,-4.854776E-1,5.3663874E-1,1.0870299E0,-9.5005214E-1,5.4954655E-2,2.8463706E-1,8.8947445E-1,5.506412E-2,2.7489785E-2,-1.9993028E-2,-5.713386E-2,-6.428189E-2,2.370459E-2,4.8383024E-2,1.4118503E-2],"categories":[],"categories_nodes":[],"categories_segments":[],"categories_sizes":[],"default_left":[0,0,0,0,0,0,0,0,0,0,0,0,0,0,0,0,0,0,0],"id":27,"left_children":[1,-1,3,5,7,9,11,13,-1,15,17,-1,-1,-1,-1,-1,-1,-1,-1],"loss_changes":[2.6161005E2,0E0,2.7332611E1,1.247139E1,1.3612858E1,6.5945854E0,1.6217804E-1,9.991598E-1,0E0,1.4412588E1,1.2275295E0,0E0,0E0,0E0,0E0,0E0,0E0,0E0,0E0],"parents":[2147483647,0,0,2,2,3,3,4,4,5,5,6,6,7,7,9,9,10,10],"right_children":[2,-1,4,6,8,10,12,14,-1,16,18,-1,-1,-1,-1,-1,-1,-1,-1],"split_conditions":[1E0,-5.6564588E-2,9.777591E0,1.2238144E2,2E0,1E0,3E0,2E0,5.4954655E-2,2.7639658E1,7.5663657E0,5.506412E-2,2.7489785E-2,-1.9993028E-2,-5.713386E-2,-6.428189E-2,2.370459E-2,4.8383024E-2,1.4118503E-2],"split_indices":[10,0,18,7,10,16,2,15,0,7,18,0,0,0,0,0,0,0,0],"split_type":[0,0,0,0,0,0,0,0,0,0,0,0,0,0,0,0,0,0,0],"sum_hessian":[3.128479E2,1.2150355E2,1.9134436E2,1.7527089E2,1.607348E1,7.601454E1,9.925634E1,1.2739012E1,3.3344688E0,4.5397522E1,3.0617022E1,9.566841E1,3.5879304E0,4.1010647E0,8.637947E0,4.264629E0,4.1132893E1,2.6597733E1,4.01929E0],"tree_param":{"num_deleted":"0","num_feature":"21","num_nodes":"19","size_leaf_vector":"1"}},{"base_weights":[-2.5696095E-2,-5.6121975E-2,6.5311885E-1,2.5813237E-1,9.954845E-1,-6.8097815E-2,6.755958E-1,1.0487701E0,-1.3016012E-3,8.249888E-2,-5.1883724E-2,8.099711E-1,-1.6094556E-2,7.9699427E-1,5.464253E-2,-3.7322666E-2,1.2217693E-2,4.4222564E-2,8.718843E-3,4.5333255E-2,2.4819288E-2],"categories":[],"categories_nodes":[],"categories_segments":[],"categories_sizes":[],"default_left":[0,0,0,0,0,0,0,0,0,0,0,0,0,0,0,0,0,0,0,0,0],"id":28,"left_children":[1,-1,3,5,7,9,11,13,-1,15,-1,17,-1,19,-1,-1,-1,-1,-1,-1,-1],"loss_changes":[2.20045E2,0E0,2.4434921E1,1.1776094E1,5.3323364E0,7.27786E0,5.337248E0,1.5731049E-1,0E0,6.0270014E0,0E0,1.4392967E0,0E0,1.2683773E-1,0E0,0E0,0E0,0E0,0E0,0E0,0E0],"parents":[2147483647,0,0,2,2,3,3,4,4,5,5,6,6,7,7,9,9,11,11,13,13],"right_children":[2,-1,4,6,8,10,12,14,-1,16,-1,18,-1,20,-1,-1,-1,-1,-1,-1,-1],"split_conditions":[1E0,-5.6121975E-2,1.24232185E2,1E0,9.997275E0,9.605437E1,9.406603E0,1.7642728E2,-1.3016012E-3,2.5740717E1,-5.1883724E-2,1.1374017E2,-1.6094556E-2,1.5569218E2,5.464253E-2,-3.7322666E-2,1.2217693E-2,4.4222564E-2,8.718843E-3,4.5333255E-2,2.4819288E-2],"split_indices":[10,0,7,16,18,7,18,7,0,7,0,7,0,7,0,0,0,0,0,0,0],"split_type":[0,0,0,0,0,0,0,0,0,0,0,0,0,0,0,0,0,0,0,0,0],"sum_hessian":[2.935817E2,1.1198958E2,1.8159213E2,8.513083E1,9.6461296E1,4.8256935E1,3.6873894E1,9.165366E1,4.8076344E0,4.2561157E1,5.6957765E0,3.2661877E1,4.2120175E0,1.6498566E1,7.51551E1,6.362628E0,3.6198532E1,2.8885485E1,3.7763922E0,1.0611191E1,5.8873744E0],"tree_param":{"num_deleted":"0","num_feature":"21","num_nodes":"21","size_leaf_vector":"1"}},{"base_weights":[1.6264984E-2,-5.5776753E-2,6.647407E-1,7.1258134E-1,-4.3603774E-2,7.892309E-1,6.0406274E-1,4.1006312E-1,8.450328E-1,7.795631E-1,4.327803E-1,8.773273E-3,4.7982547E-2,4.3812048E-2,2.3314731E-2,1.1628199E-2,4.277925E-2,1.5646132E-2,4.0816817E-2],"categories":[],"categories_nodes":[],"categories_segments":[],"categories_sizes":[],"default_left":[0,0,0,0,0,0,0,0,0,0,0,0,0,0,0,0,0,0,0],"id":29,"left_children":[1,-1,3,5,-1,7,9,11,13,15,17,-1,-1,-1,-1,-1,-1,-1,-1],"loss_changes":[2.1900972E2,0E0,1.4567932E1,1.0580215E0,0E0,1.8724289E0,2.086708E0,1.8167617E0,6.608124E-1,1.4054146E0,1.7240639E0,0E0,0E0,0E0,0E0,0E0,0E0,0E0,0E0],"parents":[2147483647,0,0,2,2,3,3,5,5,6,6,7,7,8,8,9,9,10,10],"right_children":[2,-1,4,6,-1,8,10,12,14,16,18,-1,-1,-1,-1,-1,-1,-1,-1],"split_conditions":[1E0,-5.5776753E-2,1E0,1.3E1,-4.3603774E-2,2E0,3E0,6E0,1E0,1.5E1,4E0,8.773273E-3,4.7982547E-2,4.3812048E-2,2.3314731E-2,1.1628199E-2,4.277925E-2,1.5646132E-2,4.0816817E-2],"split_indices":[10,0,11,14,0,14,15,15,3,14,0,0,0,0,0,0,0,0,0],"split_type":[0,0,0,0,0,0,0,0,0,0,0,0,0,0,0,0,0,0,0],"sum_hessian":[2.9639044E2,1.0769957E2,1.8869086E2,1.8351443E2,5.1764245E0,1.0387326E2,7.9641174E1,1.4396857E1,8.94764E1,3.7582172E1,4.2059002E1,1.1014474E1,3.382383E0,8.145123E1,8.025168E0,5.0811286E0,3.2501045E1,3.3428696E1,8.630308E0],"tree_param":{"num_deleted":"0","num_feature":"21","num_nodes":"19","size_leaf_vector":"1"}},{"base_weights":[1.294903E-2,-3.3134344E-1,7.5574267E-1,-1.6101113E-1,-9.3794554E-1,8.7552446E-1,-4.14074E-1,-5.654927E-1,7.656135E-2,-5.443303E-2,-5.431576E-1,5.2457756E-1,4.8028942E-2,-4.941074E-2,1.4598444E-2,-2.8635842E-1,-9.5722574E-1,1.5916371E-1,-5.8134872E-2,-2.1438706E-3,-4.2260043E-2,7.0891494E-1,-1.11990655E-2,3.8207334E-3,-3.6222648E-2,-5.827276E-2,-3.097776E-2,-9.213331E-3,1.3611746E-2,2.0423673E-2,4.5638915E-2],"categories":[],"categories_nodes":[],"categories_segments":[],"categories_sizes":[],"default_left":[0,0,0,0,0,0,0,0,0,0,0,0,0,0,0,0,0,0,0,0,0,0,0,0,0,0,0,0,0,0,0],"id":30,"left_children":[1,3,5,7,9,11,13,15,17,-1,19,21,-1,-1,-1,23,25,27,-1,-1,-1,29,-1,-1,-1,-1,-1,-1,-1,-1,-1],"loss_changes":[7.337732E1,2.0108503E1,1.3095009E1,1.4870317E1,1.9541245E0,1.9660873E0,3.9850297E0,5.98184E0,1.0225622E1,0E0,2.051334E0,2.6902223E0,0E0,0E0,0E0,5.591535E0,9.217167E-1,3.6551602E0,0E0,0E0,0E0,5.434723E-1,0E0,0E0,0E0,0E0,0E0,0E0,0E0,0E0,0E0],"parents":[2147483647,0,0,1,1,2,2,3,3,4,4,5,5,6,6,7,7,8,8,10,10,11,11,15,15,16,16,17,17,21,21],"right_children":[2,4,6,8,10,12,14,16,18,-1,20,22,-1,-1,-1,24,26,28,-1,-1,-1,30,-1,-1,-1,-1,-1,-1,-1,-1,-1],"split_conditions":[1.7983595E2,9.739085E0,9.997275E0,4.972695E1,7.963263E1,2.1784709E2,2.7876547E2,1.3E1,1E0,-5.443303E-2,9.674037E1,6.4924645E0,4.8028942E-2,-4.941074E-2,1.4598444E-2,4.7286224E0,1E0,7E0,-5.8134872E-2,-2.1438706E-3,-4.2260043E-2,4.2476993E0,-1.11990655E-2,3.8207334E-3,-3.6222648E-2,-5.827276E-2,-3.097776E-2,-9.213331E-3,1.3611746E-2,2.0423673E-2,4.5638915E-2],"split_indices":[7,18,18,7,7,7,7,14,11,0,7,18,0,0,0,18,16,14,0,0,0,18,0,0,0,0,0,0,0,0,0],"split_type":[0,0,0,0,0,0,0,0,0,0,0,0,0,0,0,0,0,0,0,0,0,0,0,0,0,0,0,0,0,0,0],"sum_hessian":[2.849443E2,1.9507771E2,8.98666E1,1.5329758E2,4.1780136E1,8.174773E1,8.118877E0,5.6212345E1,9.7085236E1,2.8964867E1,1.2815269E1,1.7345442E1,6.440228E1,4.2572823E0,3.8615954E0,3.3834297E1,2.2378048E1,9.183553E1,5.2497E0,5.254348E0,7.560922E0,1.3960533E1,3.3849087E0,1.8959814E1,1.4874485E1,1.2325743E1,1.0052305E1,2.259085E1,6.924468E1,6.8577137E0,7.1028194E0],"tree_param":{"num_deleted":"0","num_feature":"21","num_nodes":"31","size_leaf_vector":"1"}},{"base_weights":[-2.1960678E-2,-5.7238513E-1,4.5012796E-1,-3.3472592E-1,-5.3836096E-2,5.7852453E-1,-5.7254297E-1,-8.345267E-1,-2.0121633E-1,3.6589518E-1,8.993297E-1,-8.391907E-1,1.38800545E-2,-2.4869968E-3,-9.8415667E-1,-4.051849E-1,1.3027781E-1,4.1577917E-1,-2.6149992E-2,7.672431E-1,5.150481E-2,-1.4945287E-3,-5.4153383E-2,-5.8133394E-2,-2.334819E-2,3.6082044E-2,-2.6251525E-2,-1.7076366E-2,2.0400515E-2,4.373982E-3,2.78613E-2,3.001197E-2,4.5851093E-2],"categories":[],"categories_nodes":[],"categories_segments":[],"categories_sizes":[],"default_left":[0,0,0,0,0,0,0,0,0,0,0,0,0,0,0,0,0,0,0,0,0,0,0,0,0,0,0,0,0,0,0,0,0],"id":31,"left_children":[1,3,5,7,-1,9,11,13,15,17,19,21,-1,-1,23,25,27,29,-1,31,-1,-1,-1,-1,-1,-1,-1,-1,-1,-1,-1,-1,-1],"loss_changes":[7.250643E1,1.5078831E1,2.0057673E1,5.7711477E0,0E0,8.809429E0,4.145658E0,2.1170454E0,4.8911695E0,3.86479E0,1.2019348E-1,2.609949E0,0E0,0E0,8.824272E-1,6.3942947E0,3.8102798E0,3.5938425E0,0E0,2.0358467E-1,0E0,0E0,0E0,0E0,0E0,0E0,0E0,0E0,0E0,0E0,0E0,0E0,0E0],"parents":[2147483647,0,0,1,1,2,2,3,3,5,5,6,6,7,7,8,8,9,9,10,10,11,11,14,14,15,15,16,16,17,17,19,19],"right_children":[2,4,6,8,-1,10,12,14,16,18,20,22,-1,-1,24,26,28,30,-1,32,-1,-1,-1,-1,-1,-1,-1,-1,-1,-1,-1,-1,-1],"split_conditions":[9.2907135E1,8.569488E0,9.997275E0,2.4433609E1,-5.3836096E-2,2.615388E2,2.7876547E2,8.16923E0,1E0,1E0,5.0976614E2,1.1582994E2,1.38800545E-2,-2.4869968E-3,5E0,4.1444725E-1,4.1329675E0,1.2238144E2,-2.6149992E-2,5.4698806E0,5.150481E-2,-1.4945287E-3,-5.4153383E-2,-5.8133394E-2,-2.334819E-2,3.6082044E-2,-2.6251525E-2,-1.7076366E-2,2.0400515E-2,4.373982E-3,2.78613E-2,3.001197E-2,4.5851093E-2],"split_indices":[7,18,18,7,0,7,7,7,16,11,7,7,0,0,15,18,18,7,0,18,0,0,0,0,0,0,0,0,0,0,0,0,0],"split_type":[0,0,0,0,0,0,0,0,0,0,0,0,0,0,0,0,0,0,0,0,0,0,0,0,0,0,0,0,0,0,0,0,0],"sum_hessian":[2.770413E2,1.27810356E2,1.4923096E2,8.8003876E1,3.9806477E1,1.3297075E2,1.6260204E1,1.7445385E1,7.0558495E1,8.125535E1,5.17154E1,1.2387689E1,3.872515E0,3.0069253E0,1.4438459E1,4.3543716E1,2.7014776E1,7.744164E1,3.8137052E0,2.9144218E1,2.257118E1,3.1284754E0,9.259213E0,9.805884E0,4.632576E0,3.7032442E0,3.9840473E1,9.9249E0,1.7089876E1,2.380604E1,5.3635605E1,1.6147366E1,1.2996852E1],"tree_param":{"num_deleted":"0","num_feature":"21","num_nodes":"33","size_leaf_vector":"1"}},{"base_weights":[3.1483583E-2,-3.6767772E-1,5.668938E-1,-2.0445897E-1,-8.8594687E-1,7.029286E-1,-5.226704E-1,-1.3614383E-1,-5.808506E-2,-5.467216E-2,-1.7098628E-1,4.8690483E-1,4.8143245E-2,-5.2434236E-2,2.1021819E-2,-3.402942E-1,2.0472164E-1,1.5379784E-2,-4.3691795E-2,5.329922E-1,5.6088995E-4,-3.126986E-2,-2.0083196E-3,2.757223E-3,3.3812832E-2,3.3412997E-2,1.5156085E-2],"categories":[],"categories_nodes":[],"categories_segments":[],"categories_sizes":[],"default_left":[0,0,0,0,0,0,0,0,0,0,0,0,0,0,0,0,0,0,0,0,0,0,0,0,0,0,0],"id":32,"left_children":[1,3,5,7,9,11,13,15,-1,-1,17,19,-1,-1,-1,21,23,-1,-1,25,-1,-1,-1,-1,-1,-1,-1],"loss_changes":[5.918456E1,1.3243532E1,1.7895191E1,7.819352E0,5.40728E0,5.4584503E0,7.2369795E0,8.072111E0,0E0,0E0,3.5207052E0,1.3021946E0,0E0,0E0,0E0,6.1612177E0,3.0449004E0,0E0,0E0,1.4882917E0,0E0,0E0,0E0,0E0,0E0,0E0,0E0],"parents":[2147483647,0,0,1,1,2,2,3,3,4,4,5,5,6,6,7,7,10,10,11,11,15,15,16,16,19,19],"right_children":[2,4,6,8,10,12,14,16,-1,-1,18,20,-1,-1,-1,22,24,-1,-1,26,-1,-1,-1,-1,-1,-1,-1],"split_conditions":[1.2238144E2,9.739085E0,9.997275E0,1E0,7.963263E1,2.7876547E2,2.7876547E2,1E0,-5.808506E-2,-5.467216E-2,1.2E1,2E0,4.8143245E-2,-5.2434236E-2,2.1021819E-2,4E0,9.674037E1,1.5379784E-2,-4.3691795E-2,4E0,5.6088995E-4,-3.126986E-2,-2.0083196E-3,2.757223E-3,3.3812832E-2,3.3412997E-2,1.5156085E-2],"split_indices":[7,18,18,11,7,7,7,16,0,0,14,2,0,0,0,15,7,0,0,15,0,0,0,0,0,0,0],"split_type":[0,0,0,0,0,0,0,0,0,0,0,0,0,0,0,0,0,0,0,0,0,0,0,0,0,0,0],"sum_hessian":[2.7495682E2,1.5770053E2,1.17256294E2,1.2099122E2,3.6709316E1,1.04556946E2,1.2699344E1,1.1399781E2,6.993413E0,2.804167E1,8.667646E0,5.8670856E1,4.5886093E1,8.080518E0,4.618826E0,7.1297905E1,4.26999E1,5.491055E0,3.1765916E0,5.3378742E1,5.2921143E0,3.6008385E1,3.528952E1,3.326481E1,9.435093E0,3.240364E1,2.09751E1],"tree_param":{"num_deleted":"0","num_feature":"21","num_nodes":"27","size_leaf_vector":"1"}},{"base_weights":[4.6250536E-3,-5.5197548E-2,6.424825E-1,7.3805064E-1,-4.0804738E-1,7.770043E-1,-3.5127282E-2,-8.399909E-1,5.0392862E-2,2.6978397E-1,8.1264395E-1,-1.4496416E-2,-5.317216E-2,-5.8174564E-4,3.5486285E-2,4.272727E-2,2.226347E-2],"categories":[],"categories_nodes":[],"categories_segments":[],"categories_sizes":[],"default_left":[0,0,0,0,0,0,0,0,0,0,0,0,0,0,0,0,0],"id":33,"left_children":[1,-1,3,5,7,9,-1,11,-1,13,15,-1,-1,-1,-1,-1,-1],"loss_changes":[1.9580669E2,0E0,1.7947784E1,9.606903E0,1.0204243E1,2.631363E0,0E0,1.1997395E0,0E0,1.4753389E0,1.8799057E0,0E0,0E0,0E0,0E0,0E0,0E0],"parents":[2147483647,0,0,2,2,3,3,4,4,5,5,7,7,9,9,10,10],"right_children":[2,-1,4,6,8,10,-1,12,-1,14,16,-1,-1,-1,-1,-1,-1],"split_conditions":[1E0,-5.5197548E-2,9.997275E0,1E0,2E0,2E0,-3.5127282E-2,2E0,5.0392862E-2,7.5663657E0,8.569488E0,-1.4496416E-2,-5.317216E-2,-5.8174564E-4,3.5486285E-2,4.272727E-2,2.226347E-2],"split_indices":[10,0,18,11,10,14,0,15,0,18,18,0,0,0,0,0,0],"split_type":[0,0,0,0,0,0,0,0,0,0,0,0,0,0,0,0,0],"sum_hessian":[2.749068E2,1.0013851E2,1.7476826E2,1.6046776E2,1.4300513E1,1.5669145E2,3.7762966E0,1.1269365E1,3.0311475E0,1.0849659E1,1.458418E2,3.919183E0,7.3501825E0,7.2107134E0,3.6389456E0,1.2972028E2,1.6121529E1],"tree_param":{"num_deleted":"0","num_feature":"21","num_nodes":"17","size_leaf_vector":"1"}},{"base_weights":[3.2963347E-2,-2.0811063E-1,7.6649874E-1,-5.1284578E-2,-9.296402E-1,8.484693E-1,-6.911907E-3,-2.7950412E-1,2.073364E-1,-5.283199E-2,-6.3523656E-1,6.1106753E-1,9.521269E-1,-7.0376694E-2,-5.7456994E-1,9.66716E-2,6.416281E-1,-1.3657873E-4,-5.0925996E-2,2.5303608E-3,7.2088987E-1,5.0767373E-2,2.4441613E-2,-6.0296495E-2,3.4524442E-3,-6.1643105E-2,-1.3555782E-2,8.312566E-3,-3.1012604E-2,3.7512925E-2,1.7310223E-2,2.2021325E-2,4.0418934E-2],"categories":[],"categories_nodes":[],"categories_segments":[],"categories_sizes":[],"default_left":[0,0,0,0,0,0,0,0,0,0,0,0,0,0,0,0,0,0,0,0,0,0,0,0,0,0,0,0,0,0,0,0,0],"id":34,"left_children":[1,3,5,7,9,11,-1,13,15,-1,17,19,21,23,25,27,29,-1,-1,-1,31,-1,-1,-1,-1,-1,-1,-1,-1,-1,-1,-1,-1],"loss_changes":[4.7674183E1,2.292464E1,5.0620995E0,9.96354E0,6.818714E-1,9.2612076E-1,0E0,5.4872108E0,3.7466884E0,0E0,3.2491345E0,1.281662E0,7.0048904E-1,8.56377E0,7.060131E0,3.3122292E0,2.51019E-1,0E0,0E0,0E0,8.150005E-2,0E0,0E0,0E0,0E0,0E0,0E0,0E0,0E0,0E0,0E0,0E0,0E0],"parents":[2147483647,0,0,1,1,2,2,3,3,4,4,5,5,7,7,8,8,10,10,11,11,12,12,13,13,14,14,15,15,16,16,20,20],"right_children":[2,4,6,8,10,12,-1,14,16,-1,18,20,22,24,26,28,30,-1,-1,-1,32,-1,-1,-1,-1,-1,-1,-1,-1,-1,-1,-1,-1],"split_conditions":[2.1784709E2,9.997275E0,9.777591E0,7.963263E1,7.963263E1,3.022192E2,-6.911907E-3,1.3E1,6E0,-5.283199E-2,9.674037E1,2.1575792E0,1.9E1,2E0,4.091341E0,5E1,1E0,-1.3657873E-4,-5.0925996E-2,2.5303608E-3,8E0,5.0767373E-2,2.4441613E-2,-6.0296495E-2,3.4524442E-3,-6.1643105E-2,-1.3555782E-2,8.312566E-3,-3.1012604E-2,3.7512925E-2,1.7310223E-2,2.2021325E-2,4.0418934E-2],"split_indices":[7,18,18,7,7,7,0,14,15,0,7,18,14,14,18,1,16,0,0,0,14,0,0,0,0,0,0,0,0,0,0,0,0],"split_type":[0,0,0,0,0,0,0,0,0,0,0,0,0,0,0,0,0,0,0,0,0,0,0,0,0,0,0,0,0,0,0,0,0],"sum_hessian":[2.6769296E2,2.0201701E2,6.5675934E1,1.6682771E2,3.51893E1,6.027694E1,5.3989925E0,8.857986E1,7.824786E1,2.2775383E1,1.2413917E1,2.0415472E1,3.986147E1,5.2563835E1,3.601602E1,6.333232E1,1.4915541E1,5.064108E0,7.349809E0,3.5843153E0,1.6831158E1,3.402666E1,5.834807E0,4.9116416E0,4.765219E1,1.0397552E1,2.5618471E1,5.8429646E1,4.902677E0,9.779802E0,5.1357384E0,5.436721E0,1.1394436E1],"tree_param":{"num_deleted":"0","num_feature":"21","num_nodes":"33","size_leaf_vector":"1"}},{"base_weights":[4.793426E-2,-5.4810625E-2,6.701377E-1,7.607057E-1,-3.618412E-1,4.8921347E-1,1.0046018E0,-8.1342965E-1,5.1544376E-2,7.1195036E-1,1.8635088E-1,6.641518E-1,5.1832736E-2,-5.35067E-2,-1.1207691E-2,-8.198789E-3,4.1868065E-2,1.9235512E-2,-4.462729E-2,4.880711E-2,8.635913E-3],"categories":[],"categories_nodes":[],"categories_segments":[],"categories_sizes":[],"default_left":[0,0,0,0,0,0,0,0,0,0,0,0,0,0,0,0,0,0,0,0,0],"id":35,"left_children":[1,-1,3,5,7,9,11,13,-1,15,17,19,-1,-1,-1,-1,-1,-1,-1,-1,-1],"loss_changes":[1.9384753E2,0E0,1.6756065E1,1.0263893E1,1.0212489E1,5.18408E0,2.3483276E-1,1.5472078E0,0E0,5.087223E0,7.7811537E0,1.3743968E0,0E0,0E0,0E0,0E0,0E0,0E0,0E0,0E0,0E0],"parents":[2147483647,0,0,2,2,3,3,4,4,5,5,6,6,7,7,9,9,10,10,11,11],"right_children":[2,-1,4,6,8,10,12,14,-1,16,18,20,-1,-1,-1,-1,-1,-1,-1,-1,-1],"split_conditions":[1E0,-5.4810625E-2,9.997275E0,1.24232185E2,2E0,1.3E1,1E0,1E0,5.1544376E-2,2E0,7.7318764E0,3.9436862E0,5.1832736E-2,-5.35067E-2,-1.1207691E-2,-8.198789E-3,4.1868065E-2,1.9235512E-2,-4.462729E-2,4.880711E-2,8.635913E-3],"split_indices":[10,0,18,7,10,14,15,16,0,14,18,18,0,0,0,0,0,0,0,0,0],"split_type":[0,0,0,0,0,0,0,0,0,0,0,0,0,0,0,0,0,0,0,0,0],"sum_hessian":[2.7026712E2,9.493424E1,1.7533287E2,1.6142853E2,1.3904332E1,7.7814926E1,8.361361E1,1.08139E1,3.0904322E0,4.4060432E1,3.375449E1,9.063716E0,7.45499E1,6.9641266E0,3.8497736E0,5.479767E0,3.8580666E1,2.9055878E1,4.6986127E0,4.940736E0,4.12298E0],"tree_param":{"num_deleted":"0","num_feature":"21","num_nodes":"21","size_leaf_vector":"1"}},{"base_weights":[3.7722804E-2,-3.0651498E-1,5.487253E-1,-1.2641633E-1,-8.4480643E-1,6.578341E-1,-4.1741365E-1,-5.1593184E-2,-5.470054E-2,-5.3142276E-2,-4.9659634E-1,3.498937E-1,8.416297E-1,-4.9853887E-2,1.8680705E-2,1.0170972E-2,-5.4973226E-2,-1.9930348E-2,-5.5247635E-2,4.8496458E-1,-1.6800258E-2,7.2991794E-1,5.0183367E-2,-1.0017324E-2,1.5974341E-2,-4.318085E-2,2.4603482E-2,1.2873483E-2,4.2137373E-2,2.267503E-2,4.0255707E-2],"categories":[],"categories_nodes":[],"categories_segments":[],"categories_sizes":[],"default_left":[0,0,0,0,0,0,0,0,0,0,0,0,0,0,0,0,0,0,0,0,0,0,0,0,0,0,0,0,0,0,0],"id":36,"left_children":[1,3,5,7,9,11,13,-1,15,-1,17,19,21,-1,-1,23,-1,25,-1,27,-1,29,-1,-1,-1,-1,-1,-1,-1,-1,-1],"loss_changes":[4.5410732E1,1.4853415E1,1.1225147E1,7.528273E0,2.3960457E0,5.010357E0,5.4864883E0,0E0,7.418254E0,0E0,4.8223763E0,3.5671182E0,3.1700134E-1,0E0,0E0,6.8289523E0,0E0,4.9109755E0,0E0,2.3150268E0,0E0,4.2448616E-1,0E0,0E0,0E0,0E0,0E0,0E0,0E0,0E0,0E0],"parents":[2147483647,0,0,1,1,2,2,3,3,4,4,5,5,6,6,8,8,10,10,11,11,12,12,15,15,17,17,19,19,21,21],"right_children":[2,4,6,8,10,12,14,-1,16,-1,18,20,22,-1,-1,24,-1,26,-1,28,-1,30,-1,-1,-1,-1,-1,-1,-1,-1,-1],"split_conditions":[1.2872531E2,8.975061E0,9.997275E0,1.7329498E1,6.0609734E1,2.1784709E2,2.6813574E2,-5.1593184E-2,1E0,-5.3142276E-2,1.3E1,1.7E1,5.0976614E2,-4.9853887E-2,1.8680705E-2,1E0,-5.4973226E-2,7E0,-5.5247635E-2,1.2E1,-1.6800258E-2,7E0,5.0183367E-2,-1.0017324E-2,1.5974341E-2,-4.318085E-2,2.4603482E-2,1.2873483E-2,4.2137373E-2,2.267503E-2,4.0255707E-2],"split_indices":[7,18,18,7,7,7,7,0,11,0,14,14,7,0,0,16,0,14,0,14,0,14,0,0,0,0,0,0,0,0,0],"split_type":[0,0,0,0,0,0,0,0,0,0,0,0,0,0,0,0,0,0,0,0,0,0,0,0,0,0,0,0,0,0,0],"sum_hessian":[2.5619672E2,1.5331557E2,1.0288115E2,1.1580499E2,3.7510567E1,9.27282E1,1.0152951E1,7.516553E0,1.08288445E2,2.1804756E1,1.57058115E1,3.5744225E1,5.6983974E1,5.708954E0,4.4439974E0,1.0289005E2,5.3983865E0,9.385076E0,6.3207355E0,3.0108122E1,5.636102E0,3.6988216E1,1.9995758E1,6.1432182E1,4.1457874E1,3.285082E0,6.0999937E0,1.9456442E1,1.065168E1,9.413949E0,2.7574268E1],"tree_param":{"num_deleted":"0","num_feature":"21","num_nodes":"31","size_leaf_vector":"1"}},{"base_weights":[-8.564067E-4,-5.4439515E-2,5.8942705E-1,2.0126754E-1,8.4894973E-1,-6.863543E-2,3.1437016E-1,9.028635E-1,-3.90612E-4,4.9930802E-1,-4.1419792E-1,5.9876174E-1,9.4942826E-1,-1.3119175E-2,2.9568464E-2,1.2474219E-2,-5.949926E-2,7.101932E-3,5.5235524E-2,4.9024038E-2,2.9875776E-2],"categories":[],"categories_nodes":[],"categories_segments":[],"categories_sizes":[],"default_left":[0,0,0,0,0,0,0,0,0,0,0,0,0,0,0,0,0,0,0,0,0],"id":37,"left_children":[1,-1,3,5,7,-1,9,11,-1,13,15,17,19,-1,-1,-1,-1,-1,-1,-1,-1],"loss_changes":[1.6303342E2,0E0,1.6408028E1,1.2404509E1,4.548645E0,0E0,8.770983E0,7.414932E-1,0E0,3.7416687E0,7.203624E0,3.3073516E0,2.721634E-1,0E0,0E0,0E0,0E0,0E0,0E0,0E0,0E0],"parents":[2147483647,0,0,2,2,3,3,4,4,6,6,7,7,9,9,10,10,11,11,12,12],"right_children":[2,-1,4,6,8,-1,10,12,-1,14,16,18,20,-1,-1,-1,-1,-1,-1,-1,-1],"split_conditions":[1E0,-5.4439515E-2,1.0723418E2,2E0,9.997275E0,-6.863543E-2,8.569488E0,1.2872531E2,-3.90612E-4,2.4433609E1,1.1E1,5.275575E0,2E0,-1.3119175E-2,2.9568464E-2,1.2474219E-2,-5.949926E-2,7.101932E-3,5.5235524E-2,4.9024038E-2,2.9875776E-2],"split_indices":[10,0,7,14,18,0,18,7,0,7,14,18,2,0,0,0,0,0,0,0,0],"split_type":[0,0,0,0,0,0,0,0,0,0,0,0,0,0,0,0,0,0,0,0,0],"sum_hessian":[2.5187189E2,8.8294464E1,1.6357742E2,6.625601E1,9.732141E1,3.6952183E0,6.25608E1,9.150917E1,5.8122406E0,5.0146427E1,1.2414368E1,1.3991716E1,7.751745E1,5.2078557E0,4.4938572E1,7.0562186E0,5.3581495E0,8.026701E0,5.9650154E0,6.9590675E1,7.926774E0],"tree_param":{"num_deleted":"0","num_feature":"21","num_nodes":"21","size_leaf_vector":"1"}}]},"name":"gbtree"},"learner_model_param":{"base_score":"[4.0102783E-1]","boost_from_average":"1","num_class":"0","num_feature":"21","num_target":"1"},"objective":{"name":"binary:logistic","reg_loss_param":{"scale_pos_weight":"4"}}},"version":[3,1,3]}